digraph Tree {
node [shape=box, style="filled", color="black", fontname="helvetica"] ;
edge [fontname="helvetica"] ;
0 [label="V <= 46.195\nsquared_error = 284.276\nsamples = 4789\nvalue = 454.059", fillcolor="#f3c6a6"] ;
1 [label="AT <= 12.275\nsquared_error = 104.131\nsamples = 1947\nvalue = 470.876", fillcolor="#edaa7a"] ;
0 -> 1 [labeldistance=2.5, labelangle=45, headlabel="True"] ;
2 [label="AT <= 8.725\nsquared_error = 48.36\nsamples = 931\nvalue = 478.541", fillcolor="#eb9d65"] ;
1 -> 2 ;
3 [label="AT <= 6.995\nsquared_error = 29.181\nsamples = 362\nvalue = 484.022", fillcolor="#e99457"] ;
2 -> 3 ;
4 [label="V <= 41.465\nsquared_error = 25.715\nsamples = 192\nvalue = 485.919", fillcolor="#e89152"] ;
3 -> 4 ;
5 [label="AP <= 1021.405\nsquared_error = 27.761\nsamples = 167\nvalue = 486.364", fillcolor="#e89051"] ;
4 -> 5 ;
6 [label="AT <= 4.675\nsquared_error = 26.072\nsamples = 132\nvalue = 486.977", fillcolor="#e88f4f"] ;
5 -> 6 ;
7 [label="AT <= 3.1\nsquared_error = 6.442\nsamples = 30\nvalue = 489.984", fillcolor="#e78a47"] ;
6 -> 7 ;
8 [label="AT <= 2.82\nsquared_error = 3.822\nsamples = 2\nvalue = 483.245", fillcolor="#e99559"] ;
7 -> 8 ;
9 [label="squared_error = 0.0\nsamples = 1\nvalue = 481.29", fillcolor="#ea995e"] ;
8 -> 9 ;
10 [label="squared_error = 0.0\nsamples = 1\nvalue = 485.2", fillcolor="#e99254"] ;
8 -> 10 ;
11 [label="AT <= 4.465\nsquared_error = 4.301\nsamples = 28\nvalue = 490.305", fillcolor="#e78946"] ;
7 -> 11 ;
12 [label="AP <= 1016.605\nsquared_error = 3.054\nsamples = 23\nvalue = 489.958", fillcolor="#e78a47"] ;
11 -> 12 ;
13 [label="V <= 38.47\nsquared_error = 2.252\nsamples = 13\nvalue = 489.471", fillcolor="#e78b49"] ;
12 -> 13 ;
14 [label="RH <= 75.995\nsquared_error = 0.621\nsamples = 4\nvalue = 487.864", fillcolor="#e88e4d"] ;
13 -> 14 ;
15 [label="squared_error = 0.0\nsamples = 1\nvalue = 486.53", fillcolor="#e89050"] ;
14 -> 15 ;
16 [label="AP <= 1016.31\nsquared_error = 0.22\nsamples = 3\nvalue = 488.198", fillcolor="#e78d4c"] ;
14 -> 16 ;
17 [label="RH <= 84.585\nsquared_error = 0.007\nsamples = 2\nvalue = 487.93", fillcolor="#e88d4d"] ;
16 -> 17 ;
18 [label="squared_error = 0.0\nsamples = 1\nvalue = 488.05", fillcolor="#e88d4c"] ;
17 -> 18 ;
19 [label="squared_error = 0.0\nsamples = 1\nvalue = 487.87", fillcolor="#e88e4d"] ;
17 -> 19 ;
20 [label="squared_error = 0.0\nsamples = 1\nvalue = 489.0", fillcolor="#e78c4a"] ;
16 -> 20 ;
21 [label="RH <= 88.67\nsquared_error = 1.648\nsamples = 9\nvalue = 490.007", fillcolor="#e78a47"] ;
13 -> 21 ;
22 [label="squared_error = 0.0\nsamples = 1\nvalue = 492.92", fillcolor="#e6853f"] ;
21 -> 22 ;
23 [label="AP <= 1008.45\nsquared_error = 1.116\nsamples = 8\nvalue = 489.799", fillcolor="#e78a48"] ;
21 -> 23 ;
24 [label="RH <= 95.475\nsquared_error = 0.558\nsamples = 5\nvalue = 489.267", fillcolor="#e78b49"] ;
23 -> 24 ;
25 [label="squared_error = 0.0\nsamples = 1\nvalue = 487.35", fillcolor="#e88e4e"] ;
24 -> 25 ;
26 [label="RH <= 98.3\nsquared_error = 0.166\nsamples = 4\nvalue = 489.48", fillcolor="#e78b48"] ;
24 -> 26 ;
27 [label="AP <= 1007.84\nsquared_error = 0.141\nsamples = 3\nvalue = 489.29", fillcolor="#e78b49"] ;
26 -> 27 ;
28 [label="V <= 40.605\nsquared_error = 0.114\nsamples = 2\nvalue = 489.386", fillcolor="#e78b49"] ;
27 -> 28 ;
29 [label="squared_error = 0.0\nsamples = 1\nvalue = 489.8", fillcolor="#e78a48"] ;
28 -> 29 ;
30 [label="squared_error = 0.0\nsamples = 1\nvalue = 489.11", fillcolor="#e78b49"] ;
28 -> 30 ;
31 [label="squared_error = -0.0\nsamples = 1\nvalue = 488.81", fillcolor="#e78c4a"] ;
27 -> 31 ;
32 [label="squared_error = 0.0\nsamples = 1\nvalue = 489.86", fillcolor="#e78a47"] ;
26 -> 32 ;
33 [label="AP <= 1009.46\nsquared_error = 0.038\nsamples = 3\nvalue = 491.128", fillcolor="#e68844"] ;
23 -> 33 ;
34 [label="AP <= 1009.06\nsquared_error = 0.0\nsamples = 2\nvalue = 491.24", fillcolor="#e68844"] ;
33 -> 34 ;
35 [label="squared_error = 0.0\nsamples = 1\nvalue = 491.22", fillcolor="#e68844"] ;
34 -> 35 ;
36 [label="squared_error = 0.0\nsamples = 1\nvalue = 491.25", fillcolor="#e68844"] ;
34 -> 36 ;
37 [label="squared_error = 0.0\nsamples = 1\nvalue = 490.79", fillcolor="#e78945"] ;
33 -> 37 ;
38 [label="V <= 36.955\nsquared_error = 3.385\nsamples = 10\nvalue = 490.608", fillcolor="#e78946"] ;
12 -> 38 ;
39 [label="RH <= 87.51\nsquared_error = 1.098\nsamples = 6\nvalue = 489.079", fillcolor="#e78c4a"] ;
38 -> 39 ;
40 [label="AT <= 3.905\nsquared_error = 0.002\nsamples = 3\nvalue = 489.692", fillcolor="#e78a48"] ;
39 -> 40 ;
41 [label="squared_error = 0.0\nsamples = 1\nvalue = 489.78", fillcolor="#e78a48"] ;
40 -> 41 ;
42 [label="RH <= 85.17\nsquared_error = 0.0\nsamples = 2\nvalue = 489.67", fillcolor="#e78b48"] ;
40 -> 42 ;
43 [label="squared_error = 0.0\nsamples = 1\nvalue = 489.68", fillcolor="#e78b48"] ;
42 -> 43 ;
44 [label="squared_error = 0.0\nsamples = 1\nvalue = 489.64", fillcolor="#e78b48"] ;
42 -> 44 ;
45 [label="AP <= 1018.335\nsquared_error = 1.252\nsamples = 3\nvalue = 488.057", fillcolor="#e88d4c"] ;
39 -> 45 ;
46 [label="AT <= 4.24\nsquared_error = 0.442\nsamples = 2\nvalue = 487.365", fillcolor="#e88e4e"] ;
45 -> 46 ;
47 [label="squared_error = 0.0\nsamples = 1\nvalue = 486.7", fillcolor="#e89050"] ;
46 -> 47 ;
48 [label="squared_error = -0.0\nsamples = 1\nvalue = 488.03", fillcolor="#e88d4c"] ;
46 -> 48 ;
49 [label="squared_error = -0.0\nsamples = 1\nvalue = 489.44", fillcolor="#e78b49"] ;
45 -> 49 ;
50 [label="RH <= 85.6\nsquared_error = 0.273\nsamples = 4\nvalue = 492.356", fillcolor="#e68641"] ;
38 -> 50 ;
51 [label="AT <= 3.58\nsquared_error = 0.053\nsamples = 2\nvalue = 492.648", fillcolor="#e68640"] ;
50 -> 51 ;
52 [label="squared_error = 0.0\nsamples = 1\nvalue = 492.93", fillcolor="#e6853f"] ;
51 -> 52 ;
53 [label="squared_error = 0.0\nsamples = 1\nvalue = 492.46", fillcolor="#e68641"] ;
51 -> 53 ;
54 [label="AP <= 1017.97\nsquared_error = 0.076\nsamples = 2\nvalue = 491.625", fillcolor="#e68743"] ;
50 -> 54 ;
55 [label="squared_error = 0.0\nsamples = 1\nvalue = 491.35", fillcolor="#e68844"] ;
54 -> 55 ;
56 [label="squared_error = 0.0\nsamples = 1\nvalue = 491.9", fillcolor="#e68742"] ;
54 -> 56 ;
57 [label="AT <= 4.615\nsquared_error = 6.938\nsamples = 5\nvalue = 492.036", fillcolor="#e68742"] ;
11 -> 57 ;
58 [label="AP <= 1012.165\nsquared_error = 0.403\nsamples = 3\nvalue = 493.61", fillcolor="#e6843e"] ;
57 -> 58 ;
59 [label="AP <= 1011.57\nsquared_error = 0.03\nsamples = 2\nvalue = 494.117", fillcolor="#e5833c"] ;
58 -> 59 ;
60 [label="squared_error = 0.0\nsamples = 1\nvalue = 493.87", fillcolor="#e6833d"] ;
59 -> 60 ;
61 [label="squared_error = 0.0\nsamples = 1\nvalue = 494.24", fillcolor="#e5833c"] ;
59 -> 61 ;
62 [label="squared_error = -0.0\nsamples = 1\nvalue = 492.85", fillcolor="#e68540"] ;
58 -> 62 ;
63 [label="V <= 36.815\nsquared_error = 1.588\nsamples = 2\nvalue = 488.1", fillcolor="#e88d4c"] ;
57 -> 63 ;
64 [label="squared_error = 0.0\nsamples = 1\nvalue = 489.36", fillcolor="#e78b49"] ;
63 -> 64 ;
65 [label="squared_error = -0.0\nsamples = 1\nvalue = 486.84", fillcolor="#e88f4f"] ;
63 -> 65 ;
66 [label="V <= 39.275\nsquared_error = 28.31\nsamples = 102\nvalue = 486.145", fillcolor="#e89051"] ;
6 -> 66 ;
67 [label="AP <= 1020.405\nsquared_error = 11.087\nsamples = 33\nvalue = 484.15", fillcolor="#e99457"] ;
66 -> 67 ;
68 [label="AP <= 1013.715\nsquared_error = 8.6\nsamples = 32\nvalue = 484.378", fillcolor="#e99356"] ;
67 -> 68 ;
69 [label="V <= 38.86\nsquared_error = 9.202\nsamples = 10\nvalue = 482.935", fillcolor="#e9965a"] ;
68 -> 69 ;
70 [label="V <= 37.995\nsquared_error = 2.767\nsamples = 9\nvalue = 483.577", fillcolor="#e99558"] ;
69 -> 70 ;
71 [label="AP <= 1011.46\nsquared_error = 0.655\nsamples = 8\nvalue = 483.198", fillcolor="#e99559"] ;
70 -> 71 ;
72 [label="RH <= 86.39\nsquared_error = 0.121\nsamples = 4\nvalue = 482.517", fillcolor="#e9975b"] ;
71 -> 72 ;
73 [label="squared_error = 0.0\nsamples = 1\nvalue = 483.12", fillcolor="#e99659"] ;
72 -> 73 ;
74 [label="AP <= 1011.155\nsquared_error = 0.07\nsamples = 3\nvalue = 482.417", fillcolor="#e9975b"] ;
72 -> 74 ;
75 [label="AT <= 6.41\nsquared_error = 0.0\nsamples = 2\nvalue = 482.23", fillcolor="#ea975c"] ;
74 -> 75 ;
76 [label="squared_error = 0.0\nsamples = 1\nvalue = 482.25", fillcolor="#ea975c"] ;
75 -> 76 ;
77 [label="squared_error = -0.0\nsamples = 1\nvalue = 482.21", fillcolor="#ea975c"] ;
75 -> 77 ;
78 [label="squared_error = 0.0\nsamples = 1\nvalue = 482.79", fillcolor="#e9965a"] ;
74 -> 78 ;
79 [label="AT <= 6.725\nsquared_error = 0.362\nsamples = 4\nvalue = 483.794", fillcolor="#e99457"] ;
71 -> 79 ;
80 [label="RH <= 92.995\nsquared_error = 0.231\nsamples = 3\nvalue = 483.643", fillcolor="#e99558"] ;
79 -> 80 ;
81 [label="RH <= 91.445\nsquared_error = 0.118\nsamples = 2\nvalue = 483.4", fillcolor="#e99559"] ;
80 -> 81 ;
82 [label="squared_error = 0.0\nsamples = 1\nvalue = 483.82", fillcolor="#e99457"] ;
81 -> 82 ;
83 [label="squared_error = -0.0\nsamples = 1\nvalue = 483.12", fillcolor="#e99659"] ;
81 -> 83 ;
84 [label="squared_error = 0.0\nsamples = 1\nvalue = 484.25", fillcolor="#e99456"] ;
80 -> 84 ;
85 [label="squared_error = 0.0\nsamples = 1\nvalue = 484.85", fillcolor="#e99355"] ;
79 -> 85 ;
86 [label="squared_error = -0.0\nsamples = 1\nvalue = 489.26", fillcolor="#e78b49"] ;
70 -> 86 ;
87 [label="squared_error = 0.0\nsamples = 1\nvalue = 472.66", fillcolor="#eda775"] ;
69 -> 87 ;
88 [label="AP <= 1016.98\nsquared_error = 6.736\nsamples = 22\nvalue = 485.1", fillcolor="#e99254"] ;
68 -> 88 ;
89 [label="RH <= 92.07\nsquared_error = 4.28\nsamples = 8\nvalue = 487.115", fillcolor="#e88f4f"] ;
88 -> 89 ;
90 [label="V <= 38.47\nsquared_error = 2.978\nsamples = 6\nvalue = 487.754", fillcolor="#e88e4d"] ;
89 -> 90 ;
91 [label="squared_error = 0.0\nsamples = 1\nvalue = 485.01", fillcolor="#e99254"] ;
90 -> 91 ;
92 [label="RH <= 82.3\nsquared_error = 2.291\nsamples = 5\nvalue = 488.097", fillcolor="#e88d4c"] ;
90 -> 92 ;
93 [label="AT <= 6.785\nsquared_error = 0.03\nsamples = 2\nvalue = 487.327", fillcolor="#e88e4e"] ;
92 -> 93 ;
94 [label="squared_error = 0.0\nsamples = 1\nvalue = 487.08", fillcolor="#e88f4f"] ;
93 -> 94 ;
95 [label="squared_error = -0.0\nsamples = 1\nvalue = 487.45", fillcolor="#e88e4e"] ;
93 -> 95 ;
96 [label="AT <= 6.575\nsquared_error = 3.077\nsamples = 3\nvalue = 488.56", fillcolor="#e78c4b"] ;
92 -> 96 ;
97 [label="V <= 38.705\nsquared_error = 1.071\nsamples = 2\nvalue = 487.815", fillcolor="#e88e4d"] ;
96 -> 97 ;
98 [label="squared_error = 0.0\nsamples = 1\nvalue = 486.78", fillcolor="#e88f50"] ;
97 -> 98 ;
99 [label="squared_error = -0.0\nsamples = 1\nvalue = 488.85", fillcolor="#e78c4a"] ;
97 -> 99 ;
100 [label="squared_error = 0.0\nsamples = 1\nvalue = 491.54", fillcolor="#e68743"] ;
96 -> 100 ;
101 [label="AP <= 1014.815\nsquared_error = 0.007\nsamples = 2\nvalue = 484.235", fillcolor="#e99456"] ;
89 -> 101 ;
102 [label="squared_error = 0.0\nsamples = 1\nvalue = 484.15", fillcolor="#e99457"] ;
101 -> 102 ;
103 [label="squared_error = -0.0\nsamples = 1\nvalue = 484.32", fillcolor="#e99456"] ;
101 -> 103 ;
104 [label="AT <= 5.745\nsquared_error = 5.04\nsamples = 14\nvalue = 484.137", fillcolor="#e99457"] ;
88 -> 104 ;
105 [label="AT <= 5.485\nsquared_error = 4.321\nsamples = 3\nvalue = 488.187", fillcolor="#e78d4c"] ;
104 -> 105 ;
106 [label="RH <= 84.71\nsquared_error = 0.116\nsamples = 2\nvalue = 486.73", fillcolor="#e88f50"] ;
105 -> 106 ;
107 [label="squared_error = 0.0\nsamples = 1\nvalue = 487.07", fillcolor="#e88f4f"] ;
106 -> 107 ;
108 [label="squared_error = -0.0\nsamples = 1\nvalue = 486.39", fillcolor="#e89051"] ;
106 -> 108 ;
109 [label="squared_error = -0.0\nsamples = 1\nvalue = 491.1", fillcolor="#e68844"] ;
105 -> 109 ;
110 [label="AT <= 5.97\nsquared_error = 2.319\nsamples = 11\nvalue = 483.529", fillcolor="#e99558"] ;
104 -> 110 ;
111 [label="squared_error = 0.0\nsamples = 1\nvalue = 479.86", fillcolor="#ea9b62"] ;
110 -> 111 ;
112 [label="RH <= 65.47\nsquared_error = 1.695\nsamples = 10\nvalue = 483.722", fillcolor="#e99558"] ;
110 -> 112 ;
113 [label="squared_error = -0.0\nsamples = 1\nvalue = 485.95", fillcolor="#e89152"] ;
112 -> 113 ;
114 [label="AT <= 6.88\nsquared_error = 0.908\nsamples = 9\nvalue = 483.304", fillcolor="#e99559"] ;
112 -> 114 ;
115 [label="AT <= 6.545\nsquared_error = 0.215\nsamples = 8\nvalue = 483.521", fillcolor="#e99558"] ;
114 -> 115 ;
116 [label="AT <= 6.09\nsquared_error = 0.055\nsamples = 5\nvalue = 483.272", fillcolor="#e99559"] ;
115 -> 116 ;
117 [label="RH <= 74.76\nsquared_error = 0.001\nsamples = 2\nvalue = 483.53", fillcolor="#e99558"] ;
116 -> 117 ;
118 [label="squared_error = 0.0\nsamples = 1\nvalue = 483.5", fillcolor="#e99558"] ;
117 -> 118 ;
119 [label="squared_error = 0.0\nsamples = 1\nvalue = 483.56", fillcolor="#e99558"] ;
117 -> 119 ;
120 [label="AT <= 6.175\nsquared_error = 0.026\nsamples = 3\nvalue = 483.124", fillcolor="#e99659"] ;
116 -> 120 ;
121 [label="squared_error = 0.0\nsamples = 1\nvalue = 482.97", fillcolor="#e9965a"] ;
120 -> 121 ;
122 [label="RH <= 69.27\nsquared_error = 0.014\nsamples = 2\nvalue = 483.24", fillcolor="#e99559"] ;
120 -> 122 ;
123 [label="squared_error = 0.0\nsamples = 1\nvalue = 483.12", fillcolor="#e99659"] ;
122 -> 123 ;
124 [label="squared_error = 0.0\nsamples = 1\nvalue = 483.36", fillcolor="#e99559"] ;
122 -> 124 ;
125 [label="AT <= 6.755\nsquared_error = 0.013\nsamples = 3\nvalue = 484.208", fillcolor="#e99456"] ;
115 -> 125 ;
126 [label="AT <= 6.69\nsquared_error = 0.006\nsamples = 2\nvalue = 484.105", fillcolor="#e99457"] ;
125 -> 126 ;
127 [label="squared_error = 0.0\nsamples = 1\nvalue = 484.03", fillcolor="#e99457"] ;
126 -> 127 ;
128 [label="squared_error = -0.0\nsamples = 1\nvalue = 484.18", fillcolor="#e99456"] ;
126 -> 128 ;
129 [label="squared_error = -0.0\nsamples = 1\nvalue = 484.31", fillcolor="#e99456"] ;
125 -> 129 ;
130 [label="squared_error = -0.0\nsamples = 1\nvalue = 480.05", fillcolor="#ea9b61"] ;
114 -> 130 ;
131 [label="squared_error = 0.0\nsamples = 1\nvalue = 472.52", fillcolor="#eda775"] ;
67 -> 131 ;
132 [label="RH <= 71.775\nsquared_error = 33.808\nsamples = 69\nvalue = 487.114", fillcolor="#e88f4f"] ;
66 -> 132 ;
133 [label="RH <= 53.93\nsquared_error = 18.339\nsamples = 10\nvalue = 491.074", fillcolor="#e68844"] ;
132 -> 133 ;
134 [label="AT <= 6.19\nsquared_error = 0.004\nsamples = 2\nvalue = 484.167", fillcolor="#e99456"] ;
133 -> 134 ;
135 [label="squared_error = 0.0\nsamples = 1\nvalue = 484.12", fillcolor="#e99457"] ;
134 -> 135 ;
136 [label="squared_error = 0.0\nsamples = 1\nvalue = 484.26", fillcolor="#e99456"] ;
134 -> 136 ;
137 [label="AP <= 1020.23\nsquared_error = 9.017\nsamples = 8\nvalue = 492.668", fillcolor="#e68540"] ;
133 -> 137 ;
138 [label="RH <= 60.475\nsquared_error = 3.874\nsamples = 7\nvalue = 493.69", fillcolor="#e6843d"] ;
137 -> 138 ;
139 [label="AP <= 1016.37\nsquared_error = 0.37\nsamples = 2\nvalue = 490.54", fillcolor="#e78946"] ;
138 -> 139 ;
140 [label="squared_error = 0.0\nsamples = 1\nvalue = 490.11", fillcolor="#e78a47"] ;
139 -> 140 ;
141 [label="squared_error = 0.0\nsamples = 1\nvalue = 491.4", fillcolor="#e68843"] ;
139 -> 141 ;
142 [label="RH <= 65.47\nsquared_error = 0.071\nsamples = 5\nvalue = 494.871", fillcolor="#e5823a"] ;
138 -> 142 ;
143 [label="AP <= 1015.715\nsquared_error = 0.003\nsamples = 2\nvalue = 495.295", fillcolor="#e58139"] ;
142 -> 143 ;
144 [label="squared_error = 0.0\nsamples = 1\nvalue = 495.35", fillcolor="#e58139"] ;
143 -> 144 ;
145 [label="squared_error = 0.0\nsamples = 1\nvalue = 495.24", fillcolor="#e58139"] ;
143 -> 145 ;
146 [label="RH <= 71.115\nsquared_error = 0.014\nsamples = 3\nvalue = 494.73", fillcolor="#e5823b"] ;
142 -> 146 ;
147 [label="AT <= 5.825\nsquared_error = 0.0\nsamples = 2\nvalue = 494.85", fillcolor="#e5823a"] ;
146 -> 147 ;
148 [label="squared_error = 0.0\nsamples = 1\nvalue = 494.87", fillcolor="#e5823a"] ;
147 -> 148 ;
149 [label="squared_error = 0.0\nsamples = 1\nvalue = 494.84", fillcolor="#e5823a"] ;
147 -> 149 ;
150 [label="squared_error = 0.0\nsamples = 1\nvalue = 494.61", fillcolor="#e5823b"] ;
146 -> 150 ;
151 [label="squared_error = -0.0\nsamples = 1\nvalue = 487.05", fillcolor="#e88f4f"] ;
137 -> 151 ;
152 [label="RH <= 88.025\nsquared_error = 33.285\nsamples = 59\nvalue = 486.418", fillcolor="#e89051"] ;
132 -> 152 ;
153 [label="AP <= 1019.075\nsquared_error = 48.986\nsamples = 32\nvalue = 484.963", fillcolor="#e99254"] ;
152 -> 153 ;
154 [label="AT <= 6.235\nsquared_error = 61.37\nsamples = 19\nvalue = 482.326", fillcolor="#ea975b"] ;
153 -> 154 ;
155 [label="V <= 39.875\nsquared_error = 132.991\nsamples = 9\nvalue = 479.672", fillcolor="#ea9b62"] ;
154 -> 155 ;
156 [label="squared_error = 0.0\nsamples = 1\nvalue = 443.73", fillcolor="#f7d8c1"] ;
155 -> 156 ;
157 [label="V <= 40.26\nsquared_error = 4.191\nsamples = 8\nvalue = 483.266", fillcolor="#e99559"] ;
155 -> 157 ;
158 [label="AP <= 1007.67\nsquared_error = 0.98\nsamples = 2\nvalue = 486.85", fillcolor="#e88f4f"] ;
157 -> 158 ;
159 [label="squared_error = 0.0\nsamples = 1\nvalue = 487.84", fillcolor="#e88e4d"] ;
158 -> 159 ;
160 [label="squared_error = -0.0\nsamples = 1\nvalue = 485.86", fillcolor="#e89152"] ;
158 -> 160 ;
161 [label="AP <= 1015.735\nsquared_error = 0.979\nsamples = 6\nvalue = 482.37", fillcolor="#e9975b"] ;
157 -> 161 ;
162 [label="RH <= 87.05\nsquared_error = 0.038\nsamples = 2\nvalue = 481.465", fillcolor="#ea985e"] ;
161 -> 162 ;
163 [label="squared_error = 0.0\nsamples = 1\nvalue = 481.66", fillcolor="#ea985d"] ;
162 -> 163 ;
164 [label="squared_error = -0.0\nsamples = 1\nvalue = 481.27", fillcolor="#ea995e"] ;
162 -> 164 ;
165 [label="RH <= 85.01\nsquared_error = 0.282\nsamples = 4\nvalue = 483.275", fillcolor="#e99559"] ;
161 -> 165 ;
166 [label="squared_error = 0.0\nsamples = 1\nvalue = 484.13", fillcolor="#e99457"] ;
165 -> 166 ;
167 [label="AT <= 5.73\nsquared_error = 0.051\nsamples = 3\nvalue = 482.99", fillcolor="#e9965a"] ;
165 -> 167 ;
168 [label="AT <= 5.63\nsquared_error = 0.0\nsamples = 2\nvalue = 483.15", fillcolor="#e99559"] ;
167 -> 168 ;
169 [label="squared_error = 0.0\nsamples = 1\nvalue = 483.13", fillcolor="#e99659"] ;
168 -> 169 ;
170 [label="squared_error = 0.0\nsamples = 1\nvalue = 483.17", fillcolor="#e99559"] ;
168 -> 170 ;
171 [label="squared_error = 0.0\nsamples = 1\nvalue = 482.67", fillcolor="#e9965a"] ;
167 -> 171 ;
172 [label="AT <= 6.885\nsquared_error = 10.667\nsamples = 10\nvalue = 483.947", fillcolor="#e99457"] ;
154 -> 172 ;
173 [label="V <= 40.445\nsquared_error = 9.776\nsamples = 9\nvalue = 484.444", fillcolor="#e99356"] ;
172 -> 173 ;
174 [label="AP <= 1017.06\nsquared_error = 5.52\nsamples = 8\nvalue = 485.285", fillcolor="#e89254"] ;
173 -> 174 ;
175 [label="AP <= 1011.41\nsquared_error = 3.529\nsamples = 6\nvalue = 486.099", fillcolor="#e89151"] ;
174 -> 175 ;
176 [label="AT <= 6.615\nsquared_error = 1.772\nsamples = 3\nvalue = 484.823", fillcolor="#e99355"] ;
175 -> 176 ;
177 [label="AP <= 1010.765\nsquared_error = 2.347\nsamples = 2\nvalue = 485.597", fillcolor="#e89153"] ;
176 -> 177 ;
178 [label="squared_error = 0.0\nsamples = 1\nvalue = 486.68", fillcolor="#e89050"] ;
177 -> 178 ;
179 [label="squared_error = 0.0\nsamples = 1\nvalue = 483.43", fillcolor="#e99558"] ;
177 -> 179 ;
180 [label="squared_error = 0.0\nsamples = 1\nvalue = 484.05", fillcolor="#e99457"] ;
176 -> 180 ;
181 [label="RH <= 84.0\nsquared_error = 1.341\nsamples = 3\nvalue = 487.63", fillcolor="#e88e4d"] ;
175 -> 181 ;
182 [label="squared_error = 0.0\nsamples = 1\nvalue = 486.26", fillcolor="#e89051"] ;
181 -> 182 ;
183 [label="AT <= 6.745\nsquared_error = 0.149\nsamples = 2\nvalue = 488.543", fillcolor="#e78c4b"] ;
181 -> 183 ;
184 [label="squared_error = 0.0\nsamples = 1\nvalue = 489.09", fillcolor="#e78c4a"] ;
183 -> 184 ;
185 [label="squared_error = 0.0\nsamples = 1\nvalue = 488.27", fillcolor="#e78d4c"] ;
183 -> 185 ;
186 [label="AT <= 6.595\nsquared_error = 1.479\nsamples = 2\nvalue = 482.3", fillcolor="#ea975b"] ;
174 -> 186 ;
187 [label="squared_error = 0.0\nsamples = 1\nvalue = 480.58", fillcolor="#ea9a60"] ;
186 -> 187 ;
188 [label="squared_error = -0.0\nsamples = 1\nvalue = 483.16", fillcolor="#e99559"] ;
186 -> 188 ;
189 [label="squared_error = 0.0\nsamples = 1\nvalue = 478.56", fillcolor="#eb9d65"] ;
173 -> 189 ;
190 [label="squared_error = -0.0\nsamples = 1\nvalue = 479.97", fillcolor="#ea9b62"] ;
172 -> 190 ;
191 [label="V <= 41.275\nsquared_error = 3.263\nsamples = 13\nvalue = 488.988", fillcolor="#e78c4a"] ;
153 -> 191 ;
192 [label="V <= 40.27\nsquared_error = 0.99\nsamples = 9\nvalue = 488.069", fillcolor="#e88d4c"] ;
191 -> 192 ;
193 [label="AT <= 6.65\nsquared_error = 0.448\nsamples = 6\nvalue = 487.686", fillcolor="#e88e4d"] ;
192 -> 193 ;
194 [label="AP <= 1020.265\nsquared_error = 0.183\nsamples = 3\nvalue = 488.322", fillcolor="#e78d4c"] ;
193 -> 194 ;
195 [label="squared_error = 0.0\nsamples = 1\nvalue = 487.94", fillcolor="#e88d4d"] ;
194 -> 195 ;
196 [label="AT <= 6.61\nsquared_error = 0.184\nsamples = 2\nvalue = 488.418", fillcolor="#e78d4b"] ;
194 -> 196 ;
197 [label="squared_error = -0.0\nsamples = 1\nvalue = 488.17", fillcolor="#e78d4c"] ;
196 -> 197 ;
198 [label="squared_error = -0.0\nsamples = 1\nvalue = 489.16", fillcolor="#e78b49"] ;
196 -> 198 ;
199 [label="AT <= 6.73\nsquared_error = 0.05\nsamples = 3\nvalue = 487.157", fillcolor="#e88f4f"] ;
193 -> 199 ;
200 [label="squared_error = 0.0\nsamples = 1\nvalue = 486.84", fillcolor="#e88f4f"] ;
199 -> 200 ;
201 [label="AP <= 1020.015\nsquared_error = 0.0\nsamples = 2\nvalue = 487.315", fillcolor="#e88e4e"] ;
199 -> 201 ;
202 [label="squared_error = 0.0\nsamples = 1\nvalue = 487.3", fillcolor="#e88f4e"] ;
201 -> 202 ;
203 [label="squared_error = -0.0\nsamples = 1\nvalue = 487.33", fillcolor="#e88e4e"] ;
201 -> 203 ;
204 [label="RH <= 81.67\nsquared_error = 0.47\nsamples = 3\nvalue = 489.473", fillcolor="#e78b48"] ;
192 -> 204 ;
205 [label="squared_error = 0.0\nsamples = 1\nvalue = 490.23", fillcolor="#e78a47"] ;
204 -> 205 ;
206 [label="RH <= 84.45\nsquared_error = 0.276\nsamples = 2\nvalue = 489.095", fillcolor="#e78b49"] ;
204 -> 206 ;
207 [label="squared_error = 0.0\nsamples = 1\nvalue = 488.57", fillcolor="#e78c4b"] ;
206 -> 207 ;
208 [label="squared_error = -0.0\nsamples = 1\nvalue = 489.62", fillcolor="#e78b48"] ;
206 -> 208 ;
209 [label="AT <= 5.68\nsquared_error = 0.639\nsamples = 4\nvalue = 491.562", fillcolor="#e68743"] ;
191 -> 209 ;
210 [label="AP <= 1020.545\nsquared_error = 0.718\nsamples = 3\nvalue = 491.19", fillcolor="#e68844"] ;
209 -> 210 ;
211 [label="squared_error = 0.0\nsamples = 1\nvalue = 490.07", fillcolor="#e78a47"] ;
210 -> 211 ;
212 [label="AP <= 1020.695\nsquared_error = 0.137\nsamples = 2\nvalue = 491.75", fillcolor="#e68742"] ;
210 -> 212 ;
213 [label="squared_error = 0.0\nsamples = 1\nvalue = 492.12", fillcolor="#e68642"] ;
212 -> 213 ;
214 [label="squared_error = -0.0\nsamples = 1\nvalue = 491.38", fillcolor="#e68843"] ;
212 -> 214 ;
215 [label="squared_error = 0.0\nsamples = 1\nvalue = 492.12", fillcolor="#e68642"] ;
209 -> 215 ;
216 [label="V <= 39.365\nsquared_error = 10.761\nsamples = 27\nvalue = 488.041", fillcolor="#e88d4c"] ;
152 -> 216 ;
217 [label="AT <= 6.41\nsquared_error = 0.77\nsamples = 9\nvalue = 490.962", fillcolor="#e78845"] ;
216 -> 217 ;
218 [label="AT <= 6.315\nsquared_error = 0.25\nsamples = 6\nvalue = 491.423", fillcolor="#e68843"] ;
217 -> 218 ;
219 [label="AT <= 6.26\nsquared_error = 0.209\nsamples = 5\nvalue = 491.35", fillcolor="#e68844"] ;
218 -> 219 ;
220 [label="AT <= 6.135\nsquared_error = 0.015\nsamples = 4\nvalue = 491.49", fillcolor="#e68743"] ;
219 -> 220 ;
221 [label="AT <= 6.005\nsquared_error = 0.002\nsamples = 2\nvalue = 491.394", fillcolor="#e68843"] ;
220 -> 221 ;
222 [label="squared_error = 0.0\nsamples = 1\nvalue = 491.49", fillcolor="#e68743"] ;
221 -> 222 ;
223 [label="squared_error = -0.0\nsamples = 1\nvalue = 491.37", fillcolor="#e68843"] ;
221 -> 223 ;
224 [label="AT <= 6.195\nsquared_error = 0.008\nsamples = 2\nvalue = 491.586", fillcolor="#e68743"] ;
220 -> 224 ;
225 [label="squared_error = 0.0\nsamples = 1\nvalue = 491.54", fillcolor="#e68743"] ;
224 -> 225 ;
226 [label="squared_error = -0.0\nsamples = 1\nvalue = 491.77", fillcolor="#e68742"] ;
224 -> 226 ;
227 [label="squared_error = 0.0\nsamples = 1\nvalue = 489.95", fillcolor="#e78a47"] ;
219 -> 227 ;
228 [label="squared_error = 0.0\nsamples = 1\nvalue = 492.22", fillcolor="#e68641"] ;
218 -> 228 ;
229 [label="AP <= 1010.96\nsquared_error = 0.291\nsamples = 3\nvalue = 489.858", fillcolor="#e78a47"] ;
217 -> 229 ;
230 [label="squared_error = 0.0\nsamples = 1\nvalue = 489.22", fillcolor="#e78b49"] ;
229 -> 230 ;
231 [label="RH <= 92.405\nsquared_error = 0.032\nsamples = 2\nvalue = 490.283", fillcolor="#e78a46"] ;
229 -> 231 ;
232 [label="squared_error = 0.0\nsamples = 1\nvalue = 490.03", fillcolor="#e78a47"] ;
231 -> 232 ;
233 [label="squared_error = 0.0\nsamples = 1\nvalue = 490.41", fillcolor="#e78946"] ;
231 -> 233 ;
234 [label="AP <= 1021.125\nsquared_error = 8.067\nsamples = 18\nvalue = 486.132", fillcolor="#e89051"] ;
216 -> 234 ;
235 [label="AP <= 1017.44\nsquared_error = 8.037\nsamples = 15\nvalue = 485.423", fillcolor="#e89253"] ;
234 -> 235 ;
236 [label="AT <= 6.545\nsquared_error = 2.7\nsamples = 9\nvalue = 486.962", fillcolor="#e88f4f"] ;
235 -> 236 ;
237 [label="AT <= 5.55\nsquared_error = 2.023\nsamples = 8\nvalue = 487.412", fillcolor="#e88e4e"] ;
236 -> 237 ;
238 [label="AT <= 5.16\nsquared_error = 0.871\nsamples = 5\nvalue = 486.797", fillcolor="#e88f50"] ;
237 -> 238 ;
239 [label="RH <= 92.79\nsquared_error = 0.649\nsamples = 3\nvalue = 487.647", fillcolor="#e88e4d"] ;
238 -> 239 ;
240 [label="AP <= 1009.805\nsquared_error = 0.152\nsamples = 2\nvalue = 488.17", fillcolor="#e78d4c"] ;
239 -> 240 ;
241 [label="squared_error = 0.0\nsamples = 1\nvalue = 487.78", fillcolor="#e88e4d"] ;
240 -> 241 ;
242 [label="squared_error = 0.0\nsamples = 1\nvalue = 488.56", fillcolor="#e78c4b"] ;
240 -> 242 ;
243 [label="squared_error = 0.0\nsamples = 1\nvalue = 486.6", fillcolor="#e89050"] ;
239 -> 243 ;
244 [label="AT <= 5.305\nsquared_error = 0.09\nsamples = 2\nvalue = 486.16", fillcolor="#e89051"] ;
238 -> 244 ;
245 [label="squared_error = 0.0\nsamples = 1\nvalue = 486.46", fillcolor="#e89050"] ;
244 -> 245 ;
246 [label="squared_error = 0.0\nsamples = 1\nvalue = 485.86", fillcolor="#e89152"] ;
244 -> 246 ;
247 [label="RH <= 91.705\nsquared_error = 1.772\nsamples = 3\nvalue = 488.847", fillcolor="#e78c4a"] ;
237 -> 247 ;
248 [label="AP <= 1013.475\nsquared_error = 0.608\nsamples = 2\nvalue = 488.02", fillcolor="#e88d4c"] ;
247 -> 248 ;
249 [label="squared_error = 0.0\nsamples = 1\nvalue = 488.8", fillcolor="#e78c4a"] ;
248 -> 249 ;
250 [label="squared_error = 0.0\nsamples = 1\nvalue = 487.24", fillcolor="#e88f4e"] ;
248 -> 250 ;
251 [label="squared_error = 0.0\nsamples = 1\nvalue = 490.5", fillcolor="#e78946"] ;
247 -> 251 ;
252 [label="squared_error = -0.0\nsamples = 1\nvalue = 484.71", fillcolor="#e99355"] ;
236 -> 252 ;
253 [label="AP <= 1020.845\nsquared_error = 6.171\nsamples = 6\nvalue = 482.786", fillcolor="#e9965a"] ;
235 -> 253 ;
254 [label="RH <= 91.335\nsquared_error = 1.984\nsamples = 4\nvalue = 480.842", fillcolor="#ea995f"] ;
253 -> 254 ;
255 [label="squared_error = 0.0\nsamples = 1\nvalue = 479.35", fillcolor="#eb9c63"] ;
254 -> 255 ;
256 [label="AP <= 1020.615\nsquared_error = 1.655\nsamples = 3\nvalue = 481.34", fillcolor="#ea995e"] ;
254 -> 256 ;
257 [label="squared_error = 0.0\nsamples = 1\nvalue = 483.01", fillcolor="#e9965a"] ;
256 -> 257 ;
258 [label="AT <= 5.83\nsquared_error = 0.391\nsamples = 2\nvalue = 480.505", fillcolor="#ea9a60"] ;
256 -> 258 ;
259 [label="squared_error = 0.0\nsamples = 1\nvalue = 479.88", fillcolor="#ea9b62"] ;
258 -> 259 ;
260 [label="squared_error = 0.0\nsamples = 1\nvalue = 481.13", fillcolor="#ea995e"] ;
258 -> 260 ;
261 [label="AT <= 4.985\nsquared_error = 0.006\nsamples = 2\nvalue = 485.377", fillcolor="#e89253"] ;
253 -> 261 ;
262 [label="squared_error = 0.0\nsamples = 1\nvalue = 485.43", fillcolor="#e89253"] ;
261 -> 262 ;
263 [label="squared_error = -0.0\nsamples = 1\nvalue = 485.27", fillcolor="#e89254"] ;
261 -> 263 ;
264 [label="RH <= 89.745\nsquared_error = 3.09\nsamples = 3\nvalue = 488.054", fillcolor="#e88d4c"] ;
234 -> 264 ;
265 [label="squared_error = 0.0\nsamples = 1\nvalue = 490.57", fillcolor="#e78946"] ;
264 -> 265 ;
266 [label="AP <= 1021.275\nsquared_error = 0.781\nsamples = 2\nvalue = 487.048", fillcolor="#e88f4f"] ;
264 -> 266 ;
267 [label="squared_error = 0.0\nsamples = 1\nvalue = 485.28", fillcolor="#e89254"] ;
266 -> 267 ;
268 [label="squared_error = 0.0\nsamples = 1\nvalue = 487.49", fillcolor="#e88e4e"] ;
266 -> 268 ;
269 [label="RH <= 92.745\nsquared_error = 27.597\nsamples = 35\nvalue = 484.145", fillcolor="#e99457"] ;
5 -> 269 ;
270 [label="AT <= 5.835\nsquared_error = 18.646\nsamples = 29\nvalue = 485.525", fillcolor="#e89153"] ;
269 -> 270 ;
271 [label="RH <= 78.94\nsquared_error = 13.98\nsamples = 12\nvalue = 488.503", fillcolor="#e78c4b"] ;
270 -> 271 ;
272 [label="RH <= 74.295\nsquared_error = 30.368\nsamples = 2\nvalue = 482.547", fillcolor="#e9965b"] ;
271 -> 272 ;
273 [label="squared_error = 0.0\nsamples = 1\nvalue = 490.34", fillcolor="#e78946"] ;
272 -> 273 ;
274 [label="squared_error = -0.0\nsamples = 1\nvalue = 478.65", fillcolor="#eb9d65"] ;
272 -> 274 ;
275 [label="V <= 40.92\nsquared_error = 4.35\nsamples = 10\nvalue = 489.496", fillcolor="#e78b48"] ;
271 -> 275 ;
276 [label="AP <= 1026.665\nsquared_error = 2.873\nsamples = 8\nvalue = 488.732", fillcolor="#e78c4a"] ;
275 -> 276 ;
277 [label="V <= 37.495\nsquared_error = 1.185\nsamples = 7\nvalue = 488.005", fillcolor="#e88d4c"] ;
276 -> 277 ;
278 [label="AP <= 1026.265\nsquared_error = 0.185\nsamples = 2\nvalue = 488.93", fillcolor="#e78c4a"] ;
277 -> 278 ;
279 [label="squared_error = 0.0\nsamples = 1\nvalue = 488.5", fillcolor="#e78c4b"] ;
278 -> 279 ;
280 [label="squared_error = 0.0\nsamples = 1\nvalue = 489.36", fillcolor="#e78b49"] ;
278 -> 280 ;
281 [label="RH <= 80.885\nsquared_error = 0.988\nsamples = 5\nvalue = 487.476", fillcolor="#e88e4e"] ;
277 -> 281 ;
282 [label="squared_error = 0.0\nsamples = 1\nvalue = 486.34", fillcolor="#e89051"] ;
281 -> 282 ;
283 [label="V <= 40.095\nsquared_error = 0.902\nsamples = 4\nvalue = 487.665", fillcolor="#e88e4d"] ;
281 -> 283 ;
284 [label="squared_error = 0.0\nsamples = 1\nvalue = 488.58", fillcolor="#e78c4b"] ;
283 -> 284 ;
285 [label="AT <= 5.715\nsquared_error = 0.725\nsamples = 3\nvalue = 487.208", fillcolor="#e88f4e"] ;
283 -> 285 ;
286 [label="AP <= 1022.5\nsquared_error = 0.748\nsamples = 2\nvalue = 486.615", fillcolor="#e89050"] ;
285 -> 286 ;
287 [label="squared_error = 0.0\nsamples = 1\nvalue = 487.48", fillcolor="#e88e4e"] ;
286 -> 287 ;
288 [label="squared_error = 0.0\nsamples = 1\nvalue = 485.75", fillcolor="#e89152"] ;
286 -> 288 ;
289 [label="squared_error = 0.0\nsamples = 1\nvalue = 487.8", fillcolor="#e88e4d"] ;
285 -> 289 ;
290 [label="squared_error = 0.0\nsamples = 1\nvalue = 491.4", fillcolor="#e68843"] ;
276 -> 290 ;
291 [label="AT <= 5.25\nsquared_error = 0.327\nsamples = 2\nvalue = 492.17", fillcolor="#e68641"] ;
275 -> 291 ;
292 [label="squared_error = 0.0\nsamples = 1\nvalue = 493.16", fillcolor="#e6853f"] ;
291 -> 292 ;
293 [label="squared_error = 0.0\nsamples = 1\nvalue = 491.84", fillcolor="#e68742"] ;
291 -> 293 ;
294 [label="V <= 41.085\nsquared_error = 9.46\nsamples = 17\nvalue = 483.119", fillcolor="#e99659"] ;
270 -> 294 ;
295 [label="RH <= 75.095\nsquared_error = 8.499\nsamples = 12\nvalue = 484.176", fillcolor="#e99456"] ;
294 -> 295 ;
296 [label="AT <= 6.29\nsquared_error = 1.767\nsamples = 2\nvalue = 481.08", fillcolor="#ea995f"] ;
295 -> 296 ;
297 [label="squared_error = 0.0\nsamples = 1\nvalue = 479.2", fillcolor="#eb9c64"] ;
296 -> 297 ;
298 [label="squared_error = 0.0\nsamples = 1\nvalue = 482.02", fillcolor="#ea975c"] ;
296 -> 298 ;
299 [label="AT <= 6.385\nsquared_error = 5.141\nsamples = 10\nvalue = 485.605", fillcolor="#e89153"] ;
295 -> 299 ;
300 [label="AP <= 1027.33\nsquared_error = 7.635\nsamples = 4\nvalue = 486.982", fillcolor="#e88f4f"] ;
299 -> 300 ;
301 [label="AT <= 6.16\nsquared_error = 1.262\nsamples = 3\nvalue = 489.123", fillcolor="#e78b49"] ;
300 -> 301 ;
302 [label="squared_error = 0.0\nsamples = 1\nvalue = 487.72", fillcolor="#e88e4d"] ;
301 -> 302 ;
303 [label="V <= 40.92\nsquared_error = 0.416\nsamples = 2\nvalue = 489.825", fillcolor="#e78a48"] ;
301 -> 303 ;
304 [label="squared_error = 0.0\nsamples = 1\nvalue = 489.18", fillcolor="#e78b49"] ;
303 -> 304 ;
305 [label="squared_error = -0.0\nsamples = 1\nvalue = 490.47", fillcolor="#e78946"] ;
303 -> 305 ;
306 [label="squared_error = -0.0\nsamples = 1\nvalue = 483.77", fillcolor="#e99458"] ;
300 -> 306 ;
307 [label="RH <= 79.505\nsquared_error = 1.655\nsamples = 6\nvalue = 484.744", fillcolor="#e99355"] ;
299 -> 307 ;
308 [label="squared_error = 0.0\nsamples = 1\nvalue = 486.06", fillcolor="#e89151"] ;
307 -> 308 ;
309 [label="V <= 40.865\nsquared_error = 1.436\nsamples = 5\nvalue = 484.305", fillcolor="#e99456"] ;
307 -> 309 ;
310 [label="AP <= 1023.69\nsquared_error = 0.481\nsamples = 4\nvalue = 483.85", fillcolor="#e99457"] ;
309 -> 310 ;
311 [label="V <= 40.745\nsquared_error = 0.011\nsamples = 2\nvalue = 483.005", fillcolor="#e9965a"] ;
310 -> 311 ;
312 [label="squared_error = 0.0\nsamples = 1\nvalue = 483.11", fillcolor="#e99659"] ;
311 -> 312 ;
313 [label="squared_error = 0.0\nsamples = 1\nvalue = 482.9", fillcolor="#e9965a"] ;
311 -> 313 ;
314 [label="V <= 37.715\nsquared_error = 0.001\nsamples = 2\nvalue = 484.413", fillcolor="#e99356"] ;
310 -> 314 ;
315 [label="squared_error = 0.0\nsamples = 1\nvalue = 484.36", fillcolor="#e99356"] ;
314 -> 315 ;
316 [label="squared_error = 0.0\nsamples = 1\nvalue = 484.44", fillcolor="#e99356"] ;
314 -> 316 ;
317 [label="squared_error = 0.0\nsamples = 1\nvalue = 486.58", fillcolor="#e89050"] ;
309 -> 317 ;
318 [label="RH <= 85.39\nsquared_error = 0.807\nsamples = 5\nvalue = 480.25", fillcolor="#ea9a61"] ;
294 -> 318 ;
319 [label="squared_error = 0.0\nsamples = 1\nvalue = 479.06", fillcolor="#eb9c64"] ;
318 -> 319 ;
320 [label="RH <= 86.255\nsquared_error = 0.337\nsamples = 4\nvalue = 480.726", fillcolor="#ea9a60"] ;
318 -> 320 ;
321 [label="squared_error = 0.0\nsamples = 1\nvalue = 481.49", fillcolor="#ea985e"] ;
320 -> 321 ;
322 [label="RH <= 87.05\nsquared_error = 0.239\nsamples = 3\nvalue = 480.535", fillcolor="#ea9a60"] ;
320 -> 322 ;
323 [label="AT <= 6.055\nsquared_error = 0.009\nsamples = 2\nvalue = 480.257", fillcolor="#ea9a61"] ;
322 -> 323 ;
324 [label="squared_error = 0.0\nsamples = 1\nvalue = 480.39", fillcolor="#ea9a60"] ;
323 -> 324 ;
325 [label="squared_error = 0.0\nsamples = 1\nvalue = 480.19", fillcolor="#ea9a61"] ;
323 -> 325 ;
326 [label="squared_error = 0.0\nsamples = 1\nvalue = 481.37", fillcolor="#ea985e"] ;
322 -> 326 ;
327 [label="RH <= 95.32\nsquared_error = 12.492\nsamples = 6\nvalue = 476.94", fillcolor="#eba06a"] ;
269 -> 327 ;
328 [label="AP <= 1021.93\nsquared_error = 2.14\nsamples = 3\nvalue = 474.632", fillcolor="#eca470"] ;
327 -> 328 ;
329 [label="squared_error = 0.0\nsamples = 1\nvalue = 471.43", fillcolor="#eda978"] ;
328 -> 329 ;
330 [label="AT <= 5.56\nsquared_error = 0.108\nsamples = 2\nvalue = 475.272", fillcolor="#eca36e"] ;
328 -> 330 ;
331 [label="squared_error = 0.0\nsamples = 1\nvalue = 474.87", fillcolor="#eca36f"] ;
330 -> 331 ;
332 [label="squared_error = 0.0\nsamples = 1\nvalue = 475.54", fillcolor="#eca26d"] ;
330 -> 332 ;
333 [label="RH <= 96.36\nsquared_error = 1.226\nsamples = 3\nvalue = 481.557", fillcolor="#ea985d"] ;
327 -> 333 ;
334 [label="squared_error = 0.0\nsamples = 1\nvalue = 483.03", fillcolor="#e99659"] ;
333 -> 334 ;
335 [label="AP <= 1025.49\nsquared_error = 0.212\nsamples = 2\nvalue = 480.82", fillcolor="#ea995f"] ;
333 -> 335 ;
336 [label="squared_error = 0.0\nsamples = 1\nvalue = 481.28", fillcolor="#ea995e"] ;
335 -> 336 ;
337 [label="squared_error = 0.0\nsamples = 1\nvalue = 480.36", fillcolor="#ea9a61"] ;
335 -> 337 ;
338 [label="AT <= 5.82\nsquared_error = 6.79\nsamples = 25\nvalue = 483.412", fillcolor="#e99558"] ;
4 -> 338 ;
339 [label="AP <= 1015.83\nsquared_error = 6.672\nsamples = 14\nvalue = 482.56", fillcolor="#e9965b"] ;
338 -> 339 ;
340 [label="RH <= 92.715\nsquared_error = 5.807\nsamples = 13\nvalue = 482.137", fillcolor="#ea975c"] ;
339 -> 340 ;
341 [label="AP <= 1013.665\nsquared_error = 5.083\nsamples = 8\nvalue = 483.086", fillcolor="#e99659"] ;
340 -> 341 ;
342 [label="AT <= 5.675\nsquared_error = 4.74\nsamples = 5\nvalue = 484.691", fillcolor="#e99355"] ;
341 -> 342 ;
343 [label="AP <= 1009.45\nsquared_error = 2.195\nsamples = 3\nvalue = 486.53", fillcolor="#e89050"] ;
342 -> 343 ;
344 [label="RH <= 81.55\nsquared_error = 0.534\nsamples = 2\nvalue = 485.757", fillcolor="#e89152"] ;
343 -> 344 ;
345 [label="squared_error = 0.0\nsamples = 1\nvalue = 485.24", fillcolor="#e99254"] ;
344 -> 345 ;
346 [label="squared_error = 0.0\nsamples = 1\nvalue = 486.79", fillcolor="#e88f50"] ;
344 -> 346 ;
347 [label="squared_error = 0.0\nsamples = 1\nvalue = 488.85", fillcolor="#e78c4a"] ;
343 -> 347 ;
348 [label="AP <= 1010.895\nsquared_error = 0.523\nsamples = 2\nvalue = 482.852", fillcolor="#e9965a"] ;
342 -> 348 ;
349 [label="squared_error = 0.0\nsamples = 1\nvalue = 481.6", fillcolor="#ea985d"] ;
348 -> 349 ;
350 [label="squared_error = 0.0\nsamples = 1\nvalue = 483.27", fillcolor="#e99559"] ;
348 -> 350 ;
351 [label="AP <= 1013.99\nsquared_error = 1.063\nsamples = 3\nvalue = 481.66", fillcolor="#ea985d"] ;
341 -> 351 ;
352 [label="AT <= 4.95\nsquared_error = 0.288\nsamples = 2\nvalue = 481.0", fillcolor="#ea995f"] ;
351 -> 352 ;
353 [label="squared_error = 0.0\nsamples = 1\nvalue = 479.8", fillcolor="#ea9b62"] ;
352 -> 353 ;
354 [label="squared_error = 0.0\nsamples = 1\nvalue = 481.24", fillcolor="#ea995e"] ;
352 -> 354 ;
355 [label="squared_error = 0.0\nsamples = 1\nvalue = 482.98", fillcolor="#e9965a"] ;
351 -> 355 ;
356 [label="AP <= 1010.175\nsquared_error = 1.364\nsamples = 5\nvalue = 480.12", fillcolor="#ea9b61"] ;
340 -> 356 ;
357 [label="RH <= 95.4\nsquared_error = 0.247\nsamples = 4\nvalue = 479.493", fillcolor="#ea9c63"] ;
356 -> 357 ;
358 [label="squared_error = 0.0\nsamples = 1\nvalue = 478.44", fillcolor="#eb9d66"] ;
357 -> 358 ;
359 [label="AT <= 5.345\nsquared_error = 0.031\nsamples = 3\nvalue = 479.704", fillcolor="#ea9b62"] ;
357 -> 359 ;
360 [label="AP <= 1008.135\nsquared_error = 0.022\nsamples = 2\nvalue = 479.76", fillcolor="#ea9b62"] ;
359 -> 360 ;
361 [label="squared_error = 0.0\nsamples = 1\nvalue = 479.61", fillcolor="#ea9b63"] ;
360 -> 361 ;
362 [label="squared_error = 0.0\nsamples = 1\nvalue = 479.91", fillcolor="#ea9b62"] ;
360 -> 362 ;
363 [label="squared_error = 0.0\nsamples = 1\nvalue = 479.48", fillcolor="#ea9c63"] ;
359 -> 363 ;
364 [label="squared_error = 0.0\nsamples = 1\nvalue = 482.0", fillcolor="#ea975c"] ;
356 -> 364 ;
365 [label="squared_error = -0.0\nsamples = 1\nvalue = 486.08", fillcolor="#e89151"] ;
339 -> 365 ;
366 [label="RH <= 85.68\nsquared_error = 4.089\nsamples = 11\nvalue = 484.737", fillcolor="#e99355"] ;
338 -> 366 ;
367 [label="AP <= 1020.545\nsquared_error = 2.584\nsamples = 5\nvalue = 483.686", fillcolor="#e99558"] ;
366 -> 367 ;
368 [label="RH <= 80.84\nsquared_error = 1.148\nsamples = 4\nvalue = 482.928", fillcolor="#e9965a"] ;
367 -> 368 ;
369 [label="AP <= 1004.545\nsquared_error = 0.228\nsamples = 3\nvalue = 483.366", fillcolor="#e99559"] ;
368 -> 369 ;
370 [label="squared_error = 0.0\nsamples = 1\nvalue = 483.86", fillcolor="#e99457"] ;
369 -> 370 ;
371 [label="AP <= 1012.375\nsquared_error = 0.109\nsamples = 2\nvalue = 483.037", fillcolor="#e99659"] ;
369 -> 371 ;
372 [label="squared_error = 0.0\nsamples = 1\nvalue = 483.27", fillcolor="#e99559"] ;
371 -> 372 ;
373 [label="squared_error = 0.0\nsamples = 1\nvalue = 482.57", fillcolor="#e9965b"] ;
371 -> 373 ;
374 [label="squared_error = -0.0\nsamples = 1\nvalue = 480.74", fillcolor="#ea9a60"] ;
368 -> 374 ;
375 [label="squared_error = -0.0\nsamples = 1\nvalue = 485.96", fillcolor="#e89152"] ;
367 -> 375 ;
376 [label="RH <= 88.325\nsquared_error = 3.705\nsamples = 6\nvalue = 485.577", fillcolor="#e89153"] ;
366 -> 376 ;
377 [label="squared_error = 0.0\nsamples = 1\nvalue = 489.05", fillcolor="#e78c4a"] ;
376 -> 377 ;
378 [label="AP <= 1015.675\nsquared_error = 0.861\nsamples = 5\nvalue = 484.709", fillcolor="#e99355"] ;
376 -> 378 ;
379 [label="V <= 42.02\nsquared_error = 0.539\nsamples = 4\nvalue = 484.473", fillcolor="#e99356"] ;
378 -> 379 ;
380 [label="AP <= 1001.765\nsquared_error = 0.038\nsamples = 2\nvalue = 484.71", fillcolor="#e99355"] ;
379 -> 380 ;
381 [label="squared_error = -0.0\nsamples = 1\nvalue = 484.87", fillcolor="#e99355"] ;
380 -> 381 ;
382 [label="squared_error = 0.0\nsamples = 1\nvalue = 484.47", fillcolor="#e99356"] ;
380 -> 382 ;
383 [label="AT <= 6.335\nsquared_error = 1.3\nsamples = 2\nvalue = 483.88", fillcolor="#e99457"] ;
379 -> 383 ;
384 [label="squared_error = 0.0\nsamples = 1\nvalue = 485.02", fillcolor="#e99254"] ;
383 -> 384 ;
385 [label="squared_error = -0.0\nsamples = 1\nvalue = 482.74", fillcolor="#e9965a"] ;
383 -> 385 ;
386 [label="squared_error = -0.0\nsamples = 1\nvalue = 486.36", fillcolor="#e89051"] ;
378 -> 386 ;
387 [label="RH <= 95.315\nsquared_error = 24.261\nsamples = 170\nvalue = 481.839", fillcolor="#ea985d"] ;
3 -> 387 ;
388 [label="AP <= 1023.295\nsquared_error = 14.365\nsamples = 149\nvalue = 482.376", fillcolor="#e9975b"] ;
387 -> 388 ;
389 [label="AT <= 7.66\nsquared_error = 11.0\nsamples = 133\nvalue = 482.991", fillcolor="#e9965a"] ;
388 -> 389 ;
390 [label="AP <= 1022.875\nsquared_error = 9.186\nsamples = 49\nvalue = 484.15", fillcolor="#e99457"] ;
389 -> 390 ;
391 [label="V <= 40.035\nsquared_error = 8.366\nsamples = 48\nvalue = 484.26", fillcolor="#e99456"] ;
390 -> 391 ;
392 [label="AT <= 7.505\nsquared_error = 4.001\nsamples = 24\nvalue = 483.383", fillcolor="#e99559"] ;
391 -> 392 ;
393 [label="V <= 39.995\nsquared_error = 4.242\nsamples = 19\nvalue = 483.694", fillcolor="#e99558"] ;
392 -> 393 ;
394 [label="V <= 38.495\nsquared_error = 3.439\nsamples = 18\nvalue = 483.857", fillcolor="#e99457"] ;
393 -> 394 ;
395 [label="AT <= 7.165\nsquared_error = 0.574\nsamples = 6\nvalue = 482.702", fillcolor="#e9965a"] ;
394 -> 395 ;
396 [label="V <= 36.865\nsquared_error = 0.424\nsamples = 4\nvalue = 482.291", fillcolor="#ea975b"] ;
395 -> 396 ;
397 [label="V <= 36.005\nsquared_error = 0.015\nsamples = 2\nvalue = 482.973", fillcolor="#e9965a"] ;
396 -> 397 ;
398 [label="squared_error = 0.0\nsamples = 1\nvalue = 482.8", fillcolor="#e9965a"] ;
397 -> 398 ;
399 [label="squared_error = -0.0\nsamples = 1\nvalue = 483.06", fillcolor="#e99659"] ;
397 -> 399 ;
400 [label="RH <= 82.43\nsquared_error = 0.12\nsamples = 2\nvalue = 481.78", fillcolor="#ea985d"] ;
396 -> 400 ;
401 [label="squared_error = 0.0\nsamples = 1\nvalue = 482.38", fillcolor="#e9975b"] ;
400 -> 401 ;
402 [label="squared_error = 0.0\nsamples = 1\nvalue = 481.58", fillcolor="#ea985d"] ;
400 -> 402 ;
403 [label="RH <= 84.42\nsquared_error = 0.026\nsamples = 2\nvalue = 483.42", fillcolor="#e99558"] ;
395 -> 403 ;
404 [label="squared_error = 0.0\nsamples = 1\nvalue = 483.58", fillcolor="#e99558"] ;
403 -> 404 ;
405 [label="squared_error = 0.0\nsamples = 1\nvalue = 483.26", fillcolor="#e99559"] ;
403 -> 405 ;
406 [label="RH <= 73.36\nsquared_error = 3.866\nsamples = 12\nvalue = 484.41", fillcolor="#e99356"] ;
394 -> 406 ;
407 [label="AP <= 1019.535\nsquared_error = 0.454\nsamples = 2\nvalue = 486.523", fillcolor="#e89050"] ;
406 -> 407 ;
408 [label="squared_error = 0.0\nsamples = 1\nvalue = 485.57", fillcolor="#e89153"] ;
407 -> 408 ;
409 [label="squared_error = 0.0\nsamples = 1\nvalue = 487.0", fillcolor="#e88f4f"] ;
407 -> 409 ;
410 [label="AP <= 1018.93\nsquared_error = 3.607\nsamples = 10\nvalue = 484.093", fillcolor="#e99457"] ;
406 -> 410 ;
411 [label="RH <= 84.785\nsquared_error = 1.867\nsamples = 9\nvalue = 484.403", fillcolor="#e99356"] ;
410 -> 411 ;
412 [label="squared_error = 0.0\nsamples = 1\nvalue = 487.84", fillcolor="#e88e4d"] ;
411 -> 412 ;
413 [label="AP <= 1011.015\nsquared_error = 0.533\nsamples = 8\nvalue = 483.999", fillcolor="#e99457"] ;
411 -> 413 ;
414 [label="AT <= 7.095\nsquared_error = 0.423\nsamples = 2\nvalue = 483.29", fillcolor="#e99559"] ;
413 -> 414 ;
415 [label="squared_error = 0.0\nsamples = 1\nvalue = 482.83", fillcolor="#e9965a"] ;
414 -> 415 ;
416 [label="squared_error = 0.0\nsamples = 1\nvalue = 484.21", fillcolor="#e99456"] ;
414 -> 416 ;
417 [label="AP <= 1017.54\nsquared_error = 0.426\nsamples = 6\nvalue = 484.151", fillcolor="#e99457"] ;
413 -> 417 ;
418 [label="V <= 39.155\nsquared_error = 0.398\nsamples = 3\nvalue = 484.647", fillcolor="#e99355"] ;
417 -> 418 ;
419 [label="squared_error = 0.0\nsamples = 1\nvalue = 486.05", fillcolor="#e89152"] ;
418 -> 419 ;
420 [label="RH <= 89.015\nsquared_error = 0.005\nsamples = 2\nvalue = 484.366", fillcolor="#e99356"] ;
418 -> 420 ;
421 [label="squared_error = 0.0\nsamples = 1\nvalue = 484.51", fillcolor="#e99356"] ;
420 -> 421 ;
422 [label="squared_error = 0.0\nsamples = 1\nvalue = 484.33", fillcolor="#e99356"] ;
420 -> 422 ;
423 [label="AT <= 7.37\nsquared_error = 0.124\nsamples = 3\nvalue = 483.779", fillcolor="#e99458"] ;
417 -> 423 ;
424 [label="squared_error = 0.0\nsamples = 1\nvalue = 483.0", fillcolor="#e9965a"] ;
423 -> 424 ;
425 [label="AT <= 7.475\nsquared_error = 0.043\nsamples = 2\nvalue = 483.89", fillcolor="#e99457"] ;
423 -> 425 ;
426 [label="squared_error = 0.0\nsamples = 1\nvalue = 484.13", fillcolor="#e99457"] ;
425 -> 426 ;
427 [label="squared_error = 0.0\nsamples = 1\nvalue = 483.71", fillcolor="#e99558"] ;
425 -> 427 ;
428 [label="squared_error = -0.0\nsamples = 1\nvalue = 478.19", fillcolor="#eb9e66"] ;
410 -> 428 ;
429 [label="squared_error = -0.0\nsamples = 1\nvalue = 478.16", fillcolor="#eb9e66"] ;
393 -> 429 ;
430 [label="AP <= 1017.555\nsquared_error = 0.668\nsamples = 5\nvalue = 482.02", fillcolor="#ea975c"] ;
392 -> 430 ;
431 [label="V <= 39.295\nsquared_error = 0.404\nsamples = 3\nvalue = 482.67", fillcolor="#e9965a"] ;
430 -> 431 ;
432 [label="RH <= 71.635\nsquared_error = 0.03\nsamples = 2\nvalue = 482.313", fillcolor="#ea975b"] ;
431 -> 432 ;
433 [label="squared_error = 0.0\nsamples = 1\nvalue = 482.56", fillcolor="#e9965b"] ;
432 -> 433 ;
434 [label="squared_error = -0.0\nsamples = 1\nvalue = 482.19", fillcolor="#ea975c"] ;
432 -> 434 ;
435 [label="squared_error = 0.0\nsamples = 1\nvalue = 483.74", fillcolor="#e99458"] ;
431 -> 435 ;
436 [label="AP <= 1018.635\nsquared_error = 0.087\nsamples = 2\nvalue = 481.37", fillcolor="#ea985e"] ;
430 -> 436 ;
437 [label="squared_error = 0.0\nsamples = 1\nvalue = 481.54", fillcolor="#ea985d"] ;
436 -> 437 ;
438 [label="squared_error = 0.0\nsamples = 1\nvalue = 480.86", fillcolor="#ea995f"] ;
436 -> 438 ;
439 [label="RH <= 88.395\nsquared_error = 11.684\nsamples = 24\nvalue = 485.369", fillcolor="#e89253"] ;
391 -> 439 ;
440 [label="V <= 40.695\nsquared_error = 5.676\nsamples = 16\nvalue = 486.361", fillcolor="#e89051"] ;
439 -> 440 ;
441 [label="AP <= 1020.15\nsquared_error = 2.403\nsamples = 4\nvalue = 490.86", fillcolor="#e78945"] ;
440 -> 441 ;
442 [label="AT <= 7.56\nsquared_error = 0.558\nsamples = 3\nvalue = 490.047", fillcolor="#e78a47"] ;
441 -> 442 ;
443 [label="AP <= 1016.37\nsquared_error = 0.005\nsamples = 2\nvalue = 489.52", fillcolor="#e78b48"] ;
442 -> 443 ;
444 [label="squared_error = 0.0\nsamples = 1\nvalue = 489.59", fillcolor="#e78b48"] ;
443 -> 444 ;
445 [label="squared_error = 0.0\nsamples = 1\nvalue = 489.45", fillcolor="#e78b49"] ;
443 -> 445 ;
446 [label="squared_error = 0.0\nsamples = 1\nvalue = 491.1", fillcolor="#e68844"] ;
442 -> 446 ;
447 [label="squared_error = -0.0\nsamples = 1\nvalue = 493.3", fillcolor="#e6843e"] ;
441 -> 447 ;
448 [label="AP <= 1022.325\nsquared_error = 1.71\nsamples = 12\nvalue = 485.504", fillcolor="#e89253"] ;
440 -> 448 ;
449 [label="V <= 41.415\nsquared_error = 1.684\nsamples = 11\nvalue = 485.79", fillcolor="#e89152"] ;
448 -> 449 ;
450 [label="RH <= 83.105\nsquared_error = 0.027\nsamples = 3\nvalue = 486.87", fillcolor="#e88f4f"] ;
449 -> 450 ;
451 [label="AP <= 1021.22\nsquared_error = 0.001\nsamples = 2\nvalue = 486.777", fillcolor="#e88f50"] ;
450 -> 451 ;
452 [label="squared_error = 0.0\nsamples = 1\nvalue = 486.76", fillcolor="#e88f50"] ;
451 -> 452 ;
453 [label="squared_error = 0.0\nsamples = 1\nvalue = 486.81", fillcolor="#e88f50"] ;
451 -> 453 ;
454 [label="squared_error = -0.0\nsamples = 1\nvalue = 487.15", fillcolor="#e88f4f"] ;
450 -> 454 ;
455 [label="V <= 43.72\nsquared_error = 1.724\nsamples = 8\nvalue = 485.458", fillcolor="#e89253"] ;
449 -> 455 ;
456 [label="AP <= 1019.025\nsquared_error = 3.039\nsamples = 4\nvalue = 484.63", fillcolor="#e99355"] ;
455 -> 456 ;
457 [label="AT <= 7.575\nsquared_error = 0.949\nsamples = 3\nvalue = 485.385", fillcolor="#e89253"] ;
456 -> 457 ;
458 [label="AP <= 1017.43\nsquared_error = 0.062\nsamples = 2\nvalue = 485.933", fillcolor="#e89152"] ;
457 -> 458 ;
459 [label="squared_error = 0.0\nsamples = 1\nvalue = 485.58", fillcolor="#e89153"] ;
458 -> 459 ;
460 [label="squared_error = -0.0\nsamples = 1\nvalue = 486.11", fillcolor="#e89151"] ;
458 -> 460 ;
461 [label="squared_error = 0.0\nsamples = 1\nvalue = 483.74", fillcolor="#e99458"] ;
457 -> 461 ;
462 [label="squared_error = -0.0\nsamples = 1\nvalue = 481.61", fillcolor="#ea985d"] ;
456 -> 462 ;
463 [label="AP <= 1019.84\nsquared_error = 0.207\nsamples = 4\nvalue = 485.975", fillcolor="#e89152"] ;
455 -> 463 ;
464 [label="AP <= 1017.79\nsquared_error = 0.101\nsamples = 2\nvalue = 485.75", fillcolor="#e89152"] ;
463 -> 464 ;
465 [label="squared_error = 0.0\nsamples = 1\nvalue = 486.01", fillcolor="#e89152"] ;
464 -> 465 ;
466 [label="squared_error = -0.0\nsamples = 1\nvalue = 485.36", fillcolor="#e89253"] ;
464 -> 466 ;
467 [label="RH <= 70.255\nsquared_error = 0.157\nsamples = 2\nvalue = 486.35", fillcolor="#e89051"] ;
463 -> 467 ;
468 [label="squared_error = 0.0\nsamples = 1\nvalue = 486.07", fillcolor="#e89151"] ;
467 -> 468 ;
469 [label="squared_error = 0.0\nsamples = 1\nvalue = 486.91", fillcolor="#e88f4f"] ;
467 -> 469 ;
470 [label="squared_error = -0.0\nsamples = 1\nvalue = 484.29", fillcolor="#e99456"] ;
448 -> 470 ;
471 [label="RH <= 89.545\nsquared_error = 18.033\nsamples = 8\nvalue = 482.611", fillcolor="#e9965b"] ;
439 -> 471 ;
472 [label="squared_error = 0.0\nsamples = 1\nvalue = 475.32", fillcolor="#eca36e"] ;
471 -> 472 ;
473 [label="V <= 41.015\nsquared_error = 12.812\nsamples = 7\nvalue = 483.523", fillcolor="#e99558"] ;
471 -> 473 ;
474 [label="squared_error = 0.0\nsamples = 1\nvalue = 475.55", fillcolor="#eca26d"] ;
473 -> 474 ;
475 [label="AP <= 1022.3\nsquared_error = 4.265\nsamples = 6\nvalue = 484.661", fillcolor="#e99355"] ;
473 -> 475 ;
476 [label="V <= 42.44\nsquared_error = 1.262\nsamples = 4\nvalue = 483.506", fillcolor="#e99558"] ;
475 -> 476 ;
477 [label="V <= 41.5\nsquared_error = 0.944\nsamples = 3\nvalue = 483.15", fillcolor="#e99559"] ;
476 -> 477 ;
478 [label="squared_error = 0.0\nsamples = 1\nvalue = 482.1", fillcolor="#ea975c"] ;
477 -> 478 ;
479 [label="AT <= 7.155\nsquared_error = 0.769\nsamples = 2\nvalue = 483.5", fillcolor="#e99558"] ;
477 -> 479 ;
480 [label="squared_error = 0.0\nsamples = 1\nvalue = 484.12", fillcolor="#e99457"] ;
479 -> 480 ;
481 [label="squared_error = -0.0\nsamples = 1\nvalue = 482.26", fillcolor="#ea975c"] ;
479 -> 481 ;
482 [label="squared_error = -0.0\nsamples = 1\nvalue = 484.93", fillcolor="#e99254"] ;
476 -> 482 ;
483 [label="AP <= 1022.4\nsquared_error = 0.09\nsamples = 2\nvalue = 487.55", fillcolor="#e88e4e"] ;
475 -> 483 ;
484 [label="squared_error = 0.0\nsamples = 1\nvalue = 487.85", fillcolor="#e88e4d"] ;
483 -> 484 ;
485 [label="squared_error = 0.0\nsamples = 1\nvalue = 487.25", fillcolor="#e88f4e"] ;
483 -> 485 ;
486 [label="squared_error = 0.0\nsamples = 1\nvalue = 475.7", fillcolor="#eca26d"] ;
390 -> 486 ;
487 [label="V <= 37.645\nsquared_error = 10.783\nsamples = 84\nvalue = 482.279", fillcolor="#ea975b"] ;
389 -> 487 ;
488 [label="RH <= 82.145\nsquared_error = 1.591\nsamples = 7\nvalue = 480.258", fillcolor="#ea9a61"] ;
487 -> 488 ;
489 [label="AT <= 8.26\nsquared_error = 0.355\nsamples = 5\nvalue = 479.571", fillcolor="#ea9b63"] ;
488 -> 489 ;
490 [label="AP <= 1009.17\nsquared_error = 0.07\nsamples = 3\nvalue = 479.86", fillcolor="#ea9b62"] ;
489 -> 490 ;
491 [label="squared_error = 0.0\nsamples = 1\nvalue = 480.38", fillcolor="#ea9a60"] ;
490 -> 491 ;
492 [label="V <= 36.63\nsquared_error = 0.002\nsamples = 2\nvalue = 479.73", fillcolor="#ea9b62"] ;
490 -> 492 ;
493 [label="squared_error = 0.0\nsamples = 1\nvalue = 479.68", fillcolor="#ea9b62"] ;
492 -> 493 ;
494 [label="squared_error = 0.0\nsamples = 1\nvalue = 479.78", fillcolor="#ea9b62"] ;
492 -> 494 ;
495 [label="AT <= 8.33\nsquared_error = 0.461\nsamples = 2\nvalue = 479.09", fillcolor="#eb9c64"] ;
489 -> 495 ;
496 [label="squared_error = 0.0\nsamples = 1\nvalue = 478.13", fillcolor="#eb9e66"] ;
495 -> 496 ;
497 [label="squared_error = 0.0\nsamples = 1\nvalue = 479.57", fillcolor="#ea9b63"] ;
495 -> 497 ;
498 [label="V <= 36.16\nsquared_error = 0.274\nsamples = 2\nvalue = 482.09", fillcolor="#ea975c"] ;
488 -> 498 ;
499 [label="squared_error = 0.0\nsamples = 1\nvalue = 481.35", fillcolor="#ea985e"] ;
498 -> 499 ;
500 [label="squared_error = 0.0\nsamples = 1\nvalue = 482.46", fillcolor="#e9975b"] ;
498 -> 500 ;
501 [label="RH <= 78.08\nsquared_error = 11.23\nsamples = 77\nvalue = 482.471", fillcolor="#e9975b"] ;
487 -> 501 ;
502 [label="RH <= 68.525\nsquared_error = 8.015\nsamples = 27\nvalue = 484.353", fillcolor="#e99356"] ;
501 -> 502 ;
503 [label="V <= 40.93\nsquared_error = 3.936\nsamples = 11\nvalue = 482.909", fillcolor="#e9965a"] ;
502 -> 503 ;
504 [label="V <= 39.555\nsquared_error = 2.59\nsamples = 9\nvalue = 483.375", fillcolor="#e99559"] ;
503 -> 504 ;
505 [label="AP <= 1013.075\nsquared_error = 1.125\nsamples = 8\nvalue = 483.044", fillcolor="#e99659"] ;
504 -> 505 ;
506 [label="squared_error = 0.0\nsamples = 1\nvalue = 484.81", fillcolor="#e99355"] ;
505 -> 506 ;
507 [label="RH <= 62.3\nsquared_error = 0.705\nsamples = 7\nvalue = 482.749", fillcolor="#e9965a"] ;
505 -> 507 ;
508 [label="squared_error = 0.0\nsamples = 1\nvalue = 481.51", fillcolor="#ea985d"] ;
507 -> 508 ;
509 [label="RH <= 66.265\nsquared_error = 0.478\nsamples = 6\nvalue = 482.997", fillcolor="#e9965a"] ;
507 -> 509 ;
510 [label="AP <= 1014.835\nsquared_error = 0.33\nsamples = 4\nvalue = 483.428", fillcolor="#e99558"] ;
509 -> 510 ;
511 [label="squared_error = 0.0\nsamples = 1\nvalue = 482.96", fillcolor="#e9965a"] ;
510 -> 511 ;
512 [label="V <= 38.8\nsquared_error = 0.221\nsamples = 3\nvalue = 483.897", fillcolor="#e99457"] ;
510 -> 512 ;
513 [label="AP <= 1018.61\nsquared_error = 0.065\nsamples = 2\nvalue = 484.195", fillcolor="#e99456"] ;
512 -> 513 ;
514 [label="squared_error = 0.0\nsamples = 1\nvalue = 484.45", fillcolor="#e99356"] ;
513 -> 514 ;
515 [label="squared_error = -0.0\nsamples = 1\nvalue = 483.94", fillcolor="#e99457"] ;
513 -> 515 ;
516 [label="squared_error = 0.0\nsamples = 1\nvalue = 483.3", fillcolor="#e99559"] ;
512 -> 516 ;
517 [label="AP <= 1018.535\nsquared_error = 0.002\nsamples = 2\nvalue = 482.35", fillcolor="#ea975b"] ;
509 -> 517 ;
518 [label="squared_error = 0.0\nsamples = 1\nvalue = 482.31", fillcolor="#ea975b"] ;
517 -> 518 ;
519 [label="squared_error = -0.0\nsamples = 1\nvalue = 482.39", fillcolor="#e9975b"] ;
517 -> 519 ;
520 [label="squared_error = -0.0\nsamples = 1\nvalue = 488.02", fillcolor="#e88d4c"] ;
504 -> 520 ;
521 [label="AT <= 7.925\nsquared_error = 0.152\nsamples = 2\nvalue = 479.41", fillcolor="#eb9c63"] ;
503 -> 521 ;
522 [label="squared_error = 0.0\nsamples = 1\nvalue = 479.02", fillcolor="#eb9c64"] ;
521 -> 522 ;
523 [label="squared_error = 0.0\nsamples = 1\nvalue = 479.8", fillcolor="#ea9b62"] ;
521 -> 523 ;
524 [label="RH <= 73.715\nsquared_error = 8.203\nsamples = 16\nvalue = 485.58", fillcolor="#e89153"] ;
502 -> 524 ;
525 [label="AP <= 1020.155\nsquared_error = 4.466\nsamples = 9\nvalue = 486.765", fillcolor="#e88f50"] ;
524 -> 525 ;
526 [label="V <= 39.615\nsquared_error = 4.138\nsamples = 6\nvalue = 487.596", fillcolor="#e88e4d"] ;
525 -> 526 ;
527 [label="AT <= 8.155\nsquared_error = 0.057\nsamples = 2\nvalue = 486.362", fillcolor="#e89051"] ;
526 -> 527 ;
528 [label="squared_error = 0.0\nsamples = 1\nvalue = 485.95", fillcolor="#e89152"] ;
527 -> 528 ;
529 [label="squared_error = 0.0\nsamples = 1\nvalue = 486.5", fillcolor="#e89050"] ;
527 -> 529 ;
530 [label="AP <= 1020.05\nsquared_error = 5.214\nsamples = 4\nvalue = 488.582", fillcolor="#e78c4b"] ;
526 -> 530 ;
531 [label="AT <= 8.425\nsquared_error = 2.29\nsamples = 3\nvalue = 487.662", fillcolor="#e88e4d"] ;
530 -> 531 ;
532 [label="AT <= 8.385\nsquared_error = 0.006\nsamples = 2\nvalue = 489.175", fillcolor="#e78b49"] ;
531 -> 532 ;
533 [label="squared_error = 0.0\nsamples = 1\nvalue = 489.1", fillcolor="#e78b49"] ;
532 -> 533 ;
534 [label="squared_error = 0.0\nsamples = 1\nvalue = 489.25", fillcolor="#e78b49"] ;
532 -> 534 ;
535 [label="squared_error = -0.0\nsamples = 1\nvalue = 486.15", fillcolor="#e89051"] ;
531 -> 535 ;
536 [label="squared_error = -0.0\nsamples = 1\nvalue = 492.26", fillcolor="#e68641"] ;
530 -> 536 ;
537 [label="RH <= 71.315\nsquared_error = 0.164\nsamples = 3\nvalue = 484.898", fillcolor="#e99355"] ;
525 -> 537 ;
538 [label="V <= 42.87\nsquared_error = 0.002\nsamples = 2\nvalue = 485.13", fillcolor="#e99254"] ;
537 -> 538 ;
539 [label="squared_error = 0.0\nsamples = 1\nvalue = 485.1", fillcolor="#e99254"] ;
538 -> 539 ;
540 [label="squared_error = -0.0\nsamples = 1\nvalue = 485.19", fillcolor="#e99254"] ;
538 -> 540 ;
541 [label="squared_error = -0.0\nsamples = 1\nvalue = 484.2", fillcolor="#e99456"] ;
537 -> 541 ;
542 [label="AP <= 1019.635\nsquared_error = 7.693\nsamples = 7\nvalue = 483.38", fillcolor="#e99559"] ;
524 -> 542 ;
543 [label="V <= 40.44\nsquared_error = 2.751\nsamples = 4\nvalue = 481.237", fillcolor="#ea995e"] ;
542 -> 543 ;
544 [label="V <= 38.7\nsquared_error = 1.627\nsamples = 3\nvalue = 480.523", fillcolor="#ea9a60"] ;
543 -> 544 ;
545 [label="RH <= 75.135\nsquared_error = 0.265\nsamples = 2\nvalue = 481.375", fillcolor="#ea985e"] ;
544 -> 545 ;
546 [label="squared_error = 0.0\nsamples = 1\nvalue = 481.89", fillcolor="#ea985c"] ;
545 -> 546 ;
547 [label="squared_error = -0.0\nsamples = 1\nvalue = 480.86", fillcolor="#ea995f"] ;
545 -> 547 ;
548 [label="squared_error = 0.0\nsamples = 1\nvalue = 478.82", fillcolor="#eb9d65"] ;
544 -> 548 ;
549 [label="squared_error = -0.0\nsamples = 1\nvalue = 483.38", fillcolor="#e99559"] ;
543 -> 549 ;
550 [label="V <= 40.39\nsquared_error = 0.003\nsamples = 3\nvalue = 486.237", fillcolor="#e89051"] ;
542 -> 550 ;
551 [label="squared_error = 0.0\nsamples = 1\nvalue = 486.31", fillcolor="#e89051"] ;
550 -> 551 ;
552 [label="squared_error = -0.0\nsamples = 2\nvalue = 486.2", fillcolor="#e89051"] ;
550 -> 552 ;
553 [label="AP <= 1021.94\nsquared_error = 10.3\nsamples = 50\nvalue = 481.589", fillcolor="#ea985d"] ;
501 -> 553 ;
554 [label="RH <= 79.37\nsquared_error = 9.709\nsamples = 46\nvalue = 481.291", fillcolor="#ea995e"] ;
553 -> 554 ;
555 [label="AT <= 8.39\nsquared_error = 1.651\nsamples = 3\nvalue = 476.283", fillcolor="#eca16b"] ;
554 -> 555 ;
556 [label="V <= 40.035\nsquared_error = 0.309\nsamples = 2\nvalue = 477.507", fillcolor="#eb9f68"] ;
555 -> 556 ;
557 [label="squared_error = 0.0\nsamples = 1\nvalue = 477.9", fillcolor="#eb9e67"] ;
556 -> 557 ;
558 [label="squared_error = -0.0\nsamples = 1\nvalue = 476.72", fillcolor="#eba06a"] ;
556 -> 558 ;
559 [label="squared_error = 0.0\nsamples = 1\nvalue = 475.06", fillcolor="#eca36f"] ;
555 -> 559 ;
560 [label="V <= 40.61\nsquared_error = 7.983\nsamples = 43\nvalue = 481.74", fillcolor="#ea985d"] ;
554 -> 560 ;
561 [label="RH <= 85.01\nsquared_error = 4.336\nsamples = 17\nvalue = 483.295", fillcolor="#e99559"] ;
560 -> 561 ;
562 [label="AP <= 1020.62\nsquared_error = 1.961\nsamples = 5\nvalue = 481.515", fillcolor="#ea985d"] ;
561 -> 562 ;
563 [label="AT <= 8.095\nsquared_error = 1.098\nsamples = 3\nvalue = 480.206", fillcolor="#ea9a61"] ;
562 -> 563 ;
564 [label="squared_error = 0.0\nsamples = 1\nvalue = 481.44", fillcolor="#ea985e"] ;
563 -> 564 ;
565 [label="AT <= 8.3\nsquared_error = 0.139\nsamples = 2\nvalue = 479.383", fillcolor="#eb9c63"] ;
563 -> 565 ;
566 [label="squared_error = 0.0\nsamples = 1\nvalue = 479.91", fillcolor="#ea9b62"] ;
565 -> 566 ;
567 [label="squared_error = -0.0\nsamples = 1\nvalue = 479.12", fillcolor="#eb9c64"] ;
565 -> 567 ;
568 [label="AP <= 1021.015\nsquared_error = 0.06\nsamples = 2\nvalue = 482.607", fillcolor="#e9965b"] ;
562 -> 568 ;
569 [label="squared_error = 0.0\nsamples = 1\nvalue = 482.78", fillcolor="#e9965a"] ;
568 -> 569 ;
570 [label="squared_error = 0.0\nsamples = 1\nvalue = 482.26", fillcolor="#ea975c"] ;
568 -> 570 ;
571 [label="V <= 40.475\nsquared_error = 2.05\nsamples = 12\nvalue = 484.601", fillcolor="#e99355"] ;
561 -> 571 ;
572 [label="AP <= 1014.63\nsquared_error = 1.629\nsamples = 11\nvalue = 484.168", fillcolor="#e99456"] ;
571 -> 572 ;
573 [label="AP <= 1011.51\nsquared_error = 1.747\nsamples = 5\nvalue = 484.86", fillcolor="#e99355"] ;
572 -> 573 ;
574 [label="squared_error = 0.0\nsamples = 1\nvalue = 482.22", fillcolor="#ea975c"] ;
573 -> 574 ;
575 [label="RH <= 88.535\nsquared_error = 0.424\nsamples = 4\nvalue = 485.388", fillcolor="#e89253"] ;
573 -> 575 ;
576 [label="V <= 39.575\nsquared_error = 0.041\nsamples = 2\nvalue = 485.903", fillcolor="#e89152"] ;
575 -> 576 ;
577 [label="squared_error = 0.0\nsamples = 1\nvalue = 485.76", fillcolor="#e89152"] ;
576 -> 577 ;
578 [label="squared_error = -0.0\nsamples = 1\nvalue = 486.19", fillcolor="#e89051"] ;
576 -> 578 ;
579 [label="AP <= 1011.66\nsquared_error = 0.002\nsamples = 2\nvalue = 484.615", fillcolor="#e99355"] ;
575 -> 579 ;
580 [label="squared_error = 0.0\nsamples = 1\nvalue = 484.66", fillcolor="#e99355"] ;
579 -> 580 ;
581 [label="squared_error = -0.0\nsamples = 1\nvalue = 484.57", fillcolor="#e99355"] ;
579 -> 581 ;
582 [label="RH <= 90.255\nsquared_error = 0.553\nsamples = 6\nvalue = 483.477", fillcolor="#e99558"] ;
572 -> 582 ;
583 [label="AP <= 1016.08\nsquared_error = 0.344\nsamples = 4\nvalue = 483.075", fillcolor="#e99659"] ;
582 -> 583 ;
584 [label="AP <= 1015.525\nsquared_error = 0.0\nsamples = 2\nvalue = 483.52", fillcolor="#e99558"] ;
583 -> 584 ;
585 [label="squared_error = 0.0\nsamples = 1\nvalue = 483.54", fillcolor="#e99558"] ;
584 -> 585 ;
586 [label="squared_error = 0.0\nsamples = 1\nvalue = 483.5", fillcolor="#e99558"] ;
584 -> 586 ;
587 [label="V <= 39.105\nsquared_error = 0.292\nsamples = 2\nvalue = 482.63", fillcolor="#e9965b"] ;
583 -> 587 ;
588 [label="squared_error = 0.0\nsamples = 1\nvalue = 482.09", fillcolor="#ea975c"] ;
587 -> 588 ;
589 [label="squared_error = 0.0\nsamples = 1\nvalue = 483.17", fillcolor="#e99559"] ;
587 -> 589 ;
590 [label="AP <= 1016.445\nsquared_error = 0.004\nsamples = 2\nvalue = 484.28", fillcolor="#e99456"] ;
582 -> 590 ;
591 [label="squared_error = 0.0\nsamples = 1\nvalue = 484.34", fillcolor="#e99356"] ;
590 -> 591 ;
592 [label="squared_error = 0.0\nsamples = 1\nvalue = 484.22", fillcolor="#e99456"] ;
590 -> 592 ;
593 [label="squared_error = 0.0\nsamples = 1\nvalue = 486.33", fillcolor="#e89051"] ;
571 -> 593 ;
594 [label="AP <= 1017.395\nsquared_error = 7.788\nsamples = 26\nvalue = 480.753", fillcolor="#ea995f"] ;
560 -> 594 ;
595 [label="RH <= 88.59\nsquared_error = 6.671\nsamples = 20\nvalue = 481.272", fillcolor="#ea995e"] ;
594 -> 595 ;
596 [label="V <= 40.715\nsquared_error = 4.736\nsamples = 11\nvalue = 482.855", fillcolor="#e9965a"] ;
595 -> 596 ;
597 [label="squared_error = 0.0\nsamples = 1\nvalue = 476.22", fillcolor="#eca16b"] ;
596 -> 597 ;
598 [label="AT <= 8.385\nsquared_error = 1.705\nsamples = 10\nvalue = 483.329", fillcolor="#e99559"] ;
596 -> 598 ;
599 [label="RH <= 85.415\nsquared_error = 0.344\nsamples = 5\nvalue = 484.209", fillcolor="#e99456"] ;
598 -> 599 ;
600 [label="AP <= 1014.835\nsquared_error = 0.189\nsamples = 3\nvalue = 483.957", fillcolor="#e99457"] ;
599 -> 600 ;
601 [label="squared_error = 0.0\nsamples = 1\nvalue = 483.55", fillcolor="#e99558"] ;
600 -> 601 ;
602 [label="AT <= 8.29\nsquared_error = 0.047\nsamples = 2\nvalue = 484.363", fillcolor="#e99356"] ;
600 -> 602 ;
603 [label="squared_error = 0.0\nsamples = 1\nvalue = 484.67", fillcolor="#e99355"] ;
602 -> 603 ;
604 [label="squared_error = 0.0\nsamples = 1\nvalue = 484.21", fillcolor="#e99456"] ;
602 -> 604 ;
605 [label="V <= 42.985\nsquared_error = 0.046\nsamples = 2\nvalue = 484.965", fillcolor="#e99254"] ;
599 -> 605 ;
606 [label="squared_error = 0.0\nsamples = 1\nvalue = 484.75", fillcolor="#e99355"] ;
605 -> 606 ;
607 [label="squared_error = -0.0\nsamples = 1\nvalue = 485.18", fillcolor="#e99254"] ;
605 -> 607 ;
608 [label="V <= 41.18\nsquared_error = 1.113\nsamples = 5\nvalue = 482.157", fillcolor="#ea975c"] ;
598 -> 608 ;
609 [label="squared_error = 0.0\nsamples = 1\nvalue = 481.02", fillcolor="#ea995f"] ;
608 -> 609 ;
610 [label="RH <= 86.87\nsquared_error = 0.7\nsamples = 4\nvalue = 482.725", fillcolor="#e9965a"] ;
608 -> 610 ;
611 [label="AT <= 8.47\nsquared_error = 0.005\nsamples = 2\nvalue = 483.56", fillcolor="#e99558"] ;
610 -> 611 ;
612 [label="squared_error = 0.0\nsamples = 1\nvalue = 483.49", fillcolor="#e99558"] ;
611 -> 612 ;
613 [label="squared_error = 0.0\nsamples = 1\nvalue = 483.63", fillcolor="#e99558"] ;
611 -> 613 ;
614 [label="AT <= 8.52\nsquared_error = 0.0\nsamples = 2\nvalue = 481.89", fillcolor="#ea985c"] ;
610 -> 614 ;
615 [label="squared_error = 0.0\nsamples = 1\nvalue = 481.91", fillcolor="#ea985c"] ;
614 -> 615 ;
616 [label="squared_error = 0.0\nsamples = 1\nvalue = 481.87", fillcolor="#ea985d"] ;
614 -> 616 ;
617 [label="RH <= 92.03\nsquared_error = 3.591\nsamples = 9\nvalue = 479.688", fillcolor="#ea9b62"] ;
595 -> 617 ;
618 [label="V <= 42.255\nsquared_error = 0.93\nsamples = 7\nvalue = 480.318", fillcolor="#ea9a61"] ;
617 -> 618 ;
619 [label="AP <= 1011.66\nsquared_error = 0.665\nsamples = 6\nvalue = 480.044", fillcolor="#ea9b61"] ;
618 -> 619 ;
620 [label="AT <= 8.405\nsquared_error = 0.158\nsamples = 3\nvalue = 480.653", fillcolor="#ea9a60"] ;
619 -> 620 ;
621 [label="AP <= 1008.885\nsquared_error = 0.032\nsamples = 2\nvalue = 480.277", fillcolor="#ea9a61"] ;
620 -> 621 ;
622 [label="squared_error = 0.0\nsamples = 1\nvalue = 480.53", fillcolor="#ea9a60"] ;
621 -> 622 ;
623 [label="squared_error = 0.0\nsamples = 1\nvalue = 480.15", fillcolor="#ea9b61"] ;
621 -> 623 ;
624 [label="squared_error = -0.0\nsamples = 1\nvalue = 481.03", fillcolor="#ea995f"] ;
620 -> 624 ;
625 [label="AT <= 8.51\nsquared_error = 0.032\nsamples = 3\nvalue = 479.13", fillcolor="#eb9c64"] ;
619 -> 625 ;
626 [label="AP <= 1011.845\nsquared_error = 0.044\nsamples = 2\nvalue = 479.03", fillcolor="#eb9c64"] ;
625 -> 626 ;
627 [label="squared_error = 0.0\nsamples = 1\nvalue = 478.82", fillcolor="#eb9d65"] ;
626 -> 627 ;
628 [label="squared_error = 0.0\nsamples = 1\nvalue = 479.24", fillcolor="#eb9c63"] ;
626 -> 628 ;
629 [label="squared_error = 0.0\nsamples = 1\nvalue = 479.23", fillcolor="#eb9c64"] ;
625 -> 629 ;
630 [label="squared_error = -0.0\nsamples = 1\nvalue = 481.69", fillcolor="#ea985d"] ;
618 -> 630 ;
631 [label="V <= 42.515\nsquared_error = 6.289\nsamples = 2\nvalue = 477.167", fillcolor="#eba069"] ;
617 -> 631 ;
632 [label="squared_error = 0.0\nsamples = 1\nvalue = 473.62", fillcolor="#eda572"] ;
631 -> 632 ;
633 [label="squared_error = 0.0\nsamples = 1\nvalue = 478.94", fillcolor="#eb9d64"] ;
631 -> 633 ;
634 [label="RH <= 88.15\nsquared_error = 8.097\nsamples = 6\nvalue = 479.338", fillcolor="#eb9c63"] ;
594 -> 634 ;
635 [label="AP <= 1019.995\nsquared_error = 10.025\nsamples = 4\nvalue = 480.81", fillcolor="#ea995f"] ;
634 -> 635 ;
636 [label="V <= 41.91\nsquared_error = 8.317\nsamples = 2\nvalue = 479.425", fillcolor="#eb9c63"] ;
635 -> 636 ;
637 [label="squared_error = 0.0\nsamples = 1\nvalue = 477.76", fillcolor="#eb9f67"] ;
636 -> 637 ;
638 [label="squared_error = -0.0\nsamples = 1\nvalue = 484.42", fillcolor="#e99356"] ;
636 -> 638 ;
639 [label="RH <= 86.57\nsquared_error = 1.932\nsamples = 2\nvalue = 483.58", fillcolor="#e99558"] ;
635 -> 639 ;
640 [label="squared_error = 0.0\nsamples = 1\nvalue = 484.97", fillcolor="#e99254"] ;
639 -> 640 ;
641 [label="squared_error = -0.0\nsamples = 1\nvalue = 482.19", fillcolor="#ea975c"] ;
639 -> 641 ;
642 [label="V <= 41.335\nsquared_error = 0.065\nsamples = 2\nvalue = 477.572", fillcolor="#eb9f68"] ;
634 -> 642 ;
643 [label="squared_error = 0.0\nsamples = 1\nvalue = 477.78", fillcolor="#eb9e67"] ;
642 -> 643 ;
644 [label="squared_error = 0.0\nsamples = 1\nvalue = 477.26", fillcolor="#eb9f69"] ;
642 -> 644 ;
645 [label="AT <= 7.845\nsquared_error = 3.262\nsamples = 4\nvalue = 485.215", fillcolor="#e99254"] ;
553 -> 645 ;
646 [label="squared_error = 0.0\nsamples = 1\nvalue = 482.79", fillcolor="#e9965a"] ;
645 -> 646 ;
647 [label="RH <= 78.81\nsquared_error = 0.482\nsamples = 3\nvalue = 486.427", fillcolor="#e89051"] ;
645 -> 647 ;
648 [label="squared_error = 0.0\nsamples = 1\nvalue = 487.57", fillcolor="#e88e4e"] ;
647 -> 648 ;
649 [label="AT <= 8.465\nsquared_error = 0.062\nsamples = 2\nvalue = 486.047", fillcolor="#e89152"] ;
647 -> 649 ;
650 [label="squared_error = 0.0\nsamples = 1\nvalue = 486.4", fillcolor="#e89051"] ;
649 -> 650 ;
651 [label="squared_error = 0.0\nsamples = 1\nvalue = 485.87", fillcolor="#e89152"] ;
649 -> 651 ;
652 [label="AP <= 1026.17\nsquared_error = 17.597\nsamples = 16\nvalue = 478.311", fillcolor="#eb9e66"] ;
388 -> 652 ;
653 [label="RH <= 88.65\nsquared_error = 6.695\nsamples = 10\nvalue = 476.124", fillcolor="#eca16c"] ;
652 -> 653 ;
654 [label="RH <= 72.65\nsquared_error = 0.299\nsamples = 6\nvalue = 475.322", fillcolor="#eca36e"] ;
653 -> 654 ;
655 [label="RH <= 69.945\nsquared_error = 0.017\nsamples = 2\nvalue = 474.495", fillcolor="#eca470"] ;
654 -> 655 ;
656 [label="squared_error = -0.0\nsamples = 1\nvalue = 474.42", fillcolor="#eca470"] ;
655 -> 656 ;
657 [label="squared_error = -0.0\nsamples = 1\nvalue = 474.72", fillcolor="#eca46f"] ;
655 -> 657 ;
658 [label="AT <= 7.465\nsquared_error = 0.028\nsamples = 4\nvalue = 475.653", fillcolor="#eca26d"] ;
654 -> 658 ;
659 [label="squared_error = 0.0\nsamples = 1\nvalue = 476.12", fillcolor="#eca16c"] ;
658 -> 659 ;
660 [label="AP <= 1023.435\nsquared_error = 0.004\nsamples = 3\nvalue = 475.601", fillcolor="#eca26d"] ;
658 -> 660 ;
661 [label="squared_error = 0.0\nsamples = 1\nvalue = 475.66", fillcolor="#eca26d"] ;
660 -> 661 ;
662 [label="AT <= 7.76\nsquared_error = 0.0\nsamples = 2\nvalue = 475.528", fillcolor="#eca26d"] ;
660 -> 662 ;
663 [label="squared_error = 0.0\nsamples = 1\nvalue = 475.55", fillcolor="#eca26d"] ;
662 -> 663 ;
664 [label="squared_error = 0.0\nsamples = 1\nvalue = 475.52", fillcolor="#eca26d"] ;
662 -> 664 ;
665 [label="AP <= 1024.565\nsquared_error = 15.631\nsamples = 4\nvalue = 477.727", fillcolor="#eb9f67"] ;
653 -> 665 ;
666 [label="V <= 40.37\nsquared_error = 5.783\nsamples = 3\nvalue = 476.393", fillcolor="#eca16b"] ;
665 -> 666 ;
667 [label="AT <= 7.915\nsquared_error = 0.24\nsamples = 2\nvalue = 477.45", fillcolor="#eb9f68"] ;
666 -> 667 ;
668 [label="squared_error = 0.0\nsamples = 1\nvalue = 478.05", fillcolor="#eb9e67"] ;
667 -> 668 ;
669 [label="squared_error = 0.0\nsamples = 1\nvalue = 477.05", fillcolor="#eba069"] ;
667 -> 669 ;
670 [label="squared_error = -0.0\nsamples = 1\nvalue = 471.11", fillcolor="#edaa79"] ;
666 -> 670 ;
671 [label="squared_error = -0.0\nsamples = 1\nvalue = 485.73", fillcolor="#e89152"] ;
665 -> 671 ;
672 [label="V <= 38.48\nsquared_error = 9.341\nsamples = 6\nvalue = 482.905", fillcolor="#e9965a"] ;
652 -> 672 ;
673 [label="AP <= 1028.07\nsquared_error = 0.618\nsamples = 3\nvalue = 480.188", fillcolor="#ea9a61"] ;
672 -> 673 ;
674 [label="squared_error = 0.0\nsamples = 1\nvalue = 481.74", fillcolor="#ea985d"] ;
673 -> 674 ;
675 [label="AP <= 1028.765\nsquared_error = 0.02\nsamples = 2\nvalue = 479.8", fillcolor="#ea9b62"] ;
673 -> 675 ;
676 [label="squared_error = 0.0\nsamples = 1\nvalue = 479.66", fillcolor="#ea9b62"] ;
675 -> 676 ;
677 [label="squared_error = 0.0\nsamples = 1\nvalue = 479.94", fillcolor="#ea9b62"] ;
675 -> 677 ;
678 [label="V <= 40.755\nsquared_error = 3.301\nsamples = 3\nvalue = 485.622", fillcolor="#e89153"] ;
672 -> 678 ;
679 [label="squared_error = 0.0\nsamples = 1\nvalue = 487.79", fillcolor="#e88e4d"] ;
678 -> 679 ;
680 [label="RH <= 87.905\nsquared_error = 0.279\nsamples = 2\nvalue = 484.177", fillcolor="#e99456"] ;
678 -> 680 ;
681 [label="squared_error = 0.0\nsamples = 1\nvalue = 484.55", fillcolor="#e99355"] ;
680 -> 681 ;
682 [label="squared_error = 0.0\nsamples = 1\nvalue = 483.43", fillcolor="#e99558"] ;
680 -> 682 ;
683 [label="AP <= 1016.535\nsquared_error = 83.305\nsamples = 21\nvalue = 477.464", fillcolor="#eb9f68"] ;
387 -> 683 ;
684 [label="AT <= 7.72\nsquared_error = 5.687\nsamples = 8\nvalue = 483.468", fillcolor="#e99558"] ;
683 -> 684 ;
685 [label="V <= 41.24\nsquared_error = 3.247\nsamples = 6\nvalue = 484.584", fillcolor="#e99355"] ;
684 -> 685 ;
686 [label="AT <= 7.245\nsquared_error = 4.024\nsamples = 4\nvalue = 485.2", fillcolor="#e99254"] ;
685 -> 686 ;
687 [label="V <= 40.785\nsquared_error = 0.562\nsamples = 2\nvalue = 483.84", fillcolor="#e99457"] ;
686 -> 687 ;
688 [label="squared_error = 0.0\nsamples = 1\nvalue = 484.9", fillcolor="#e99355"] ;
687 -> 688 ;
689 [label="squared_error = -0.0\nsamples = 1\nvalue = 483.31", fillcolor="#e99559"] ;
687 -> 689 ;
690 [label="RH <= 97.055\nsquared_error = 2.28\nsamples = 2\nvalue = 487.24", fillcolor="#e88f4e"] ;
686 -> 690 ;
691 [label="squared_error = 0.0\nsamples = 1\nvalue = 485.73", fillcolor="#e89152"] ;
690 -> 691 ;
692 [label="squared_error = 0.0\nsamples = 1\nvalue = 488.75", fillcolor="#e78c4a"] ;
690 -> 692 ;
693 [label="AP <= 1005.53\nsquared_error = 0.264\nsamples = 2\nvalue = 483.557", fillcolor="#e99558"] ;
685 -> 693 ;
694 [label="squared_error = 0.0\nsamples = 1\nvalue = 483.92", fillcolor="#e99457"] ;
693 -> 694 ;
695 [label="squared_error = -0.0\nsamples = 1\nvalue = 482.83", fillcolor="#e9965a"] ;
693 -> 695 ;
696 [label="AT <= 8.1\nsquared_error = 0.026\nsamples = 2\nvalue = 480.493", fillcolor="#ea9a60"] ;
684 -> 696 ;
697 [label="squared_error = 0.0\nsamples = 1\nvalue = 480.72", fillcolor="#ea9a60"] ;
696 -> 697 ;
698 [label="squared_error = -0.0\nsamples = 1\nvalue = 480.38", fillcolor="#ea9a60"] ;
696 -> 698 ;
699 [label="AP <= 1019.065\nsquared_error = 95.25\nsamples = 13\nvalue = 473.796", fillcolor="#eca572"] ;
683 -> 699 ;
700 [label="squared_error = 0.0\nsamples = 1\nvalue = 435.58", fillcolor="#fae5d7"] ;
699 -> 700 ;
701 [label="V <= 42.33\nsquared_error = 9.892\nsamples = 12\nvalue = 476.044", fillcolor="#eca16c"] ;
699 -> 701 ;
702 [label="RH <= 95.705\nsquared_error = 2.825\nsamples = 9\nvalue = 474.814", fillcolor="#eca36f"] ;
701 -> 702 ;
703 [label="RH <= 95.54\nsquared_error = 1.115\nsamples = 2\nvalue = 472.127", fillcolor="#eda876"] ;
702 -> 703 ;
704 [label="squared_error = 0.0\nsamples = 1\nvalue = 471.38", fillcolor="#eda978"] ;
703 -> 704 ;
705 [label="squared_error = -0.0\nsamples = 1\nvalue = 473.62", fillcolor="#eda572"] ;
703 -> 705 ;
706 [label="V <= 41.075\nsquared_error = 0.784\nsamples = 7\nvalue = 475.547", fillcolor="#eca26d"] ;
702 -> 706 ;
707 [label="RH <= 97.65\nsquared_error = 0.342\nsamples = 6\nvalue = 475.882", fillcolor="#eca26c"] ;
706 -> 707 ;
708 [label="AP <= 1025.485\nsquared_error = 0.13\nsamples = 4\nvalue = 476.09", fillcolor="#eca16c"] ;
707 -> 708 ;
709 [label="RH <= 97.25\nsquared_error = 0.008\nsamples = 3\nvalue = 476.233", fillcolor="#eca16b"] ;
708 -> 709 ;
710 [label="AT <= 8.175\nsquared_error = 0.001\nsamples = 2\nvalue = 476.317", fillcolor="#eca16b"] ;
709 -> 710 ;
711 [label="squared_error = 0.0\nsamples = 1\nvalue = 476.37", fillcolor="#eca16b"] ;
710 -> 711 ;
712 [label="squared_error = -0.0\nsamples = 1\nvalue = 476.29", fillcolor="#eca16b"] ;
710 -> 712 ;
713 [label="squared_error = 0.0\nsamples = 1\nvalue = 476.15", fillcolor="#eca16c"] ;
709 -> 713 ;
714 [label="squared_error = 0.0\nsamples = 1\nvalue = 475.23", fillcolor="#eca36e"] ;
708 -> 714 ;
715 [label="AT <= 8.43\nsquared_error = 0.403\nsamples = 2\nvalue = 475.155", fillcolor="#eca36e"] ;
707 -> 715 ;
716 [label="squared_error = 0.0\nsamples = 1\nvalue = 474.52", fillcolor="#eca470"] ;
715 -> 716 ;
717 [label="squared_error = 0.0\nsamples = 1\nvalue = 475.79", fillcolor="#eca26d"] ;
715 -> 717 ;
718 [label="squared_error = 0.0\nsamples = 1\nvalue = 474.04", fillcolor="#eca571"] ;
706 -> 718 ;
719 [label="V <= 44.1\nsquared_error = 2.909\nsamples = 3\nvalue = 481.78", fillcolor="#ea985d"] ;
701 -> 719 ;
720 [label="RH <= 97.095\nsquared_error = 0.865\nsamples = 2\nvalue = 482.86", fillcolor="#e9965a"] ;
719 -> 720 ;
721 [label="squared_error = 0.0\nsamples = 1\nvalue = 483.79", fillcolor="#e99457"] ;
720 -> 721 ;
722 [label="squared_error = 0.0\nsamples = 1\nvalue = 481.93", fillcolor="#ea985c"] ;
720 -> 722 ;
723 [label="squared_error = 0.0\nsamples = 1\nvalue = 479.62", fillcolor="#ea9b62"] ;
719 -> 723 ;
724 [label="RH <= 92.965\nsquared_error = 29.257\nsamples = 569\nvalue = 475.05", fillcolor="#eca36f"] ;
2 -> 724 ;
725 [label="AT <= 10.875\nsquared_error = 27.921\nsamples = 474\nvalue = 475.968", fillcolor="#eca26c"] ;
724 -> 725 ;
726 [label="RH <= 75.035\nsquared_error = 23.983\nsamples = 288\nvalue = 477.812", fillcolor="#eb9e67"] ;
725 -> 726 ;
727 [label="AT <= 8.75\nsquared_error = 35.416\nsamples = 85\nvalue = 476.295", fillcolor="#eca16b"] ;
726 -> 727 ;
728 [label="AT <= 8.735\nsquared_error = 320.589\nsamples = 2\nvalue = 456.535", fillcolor="#f2c29f"] ;
727 -> 728 ;
729 [label="squared_error = 0.0\nsamples = 1\nvalue = 474.44", fillcolor="#eca470"] ;
728 -> 729 ;
730 [label="squared_error = 0.0\nsamples = 1\nvalue = 438.63", fillcolor="#f9e0cf"] ;
728 -> 730 ;
731 [label="AT <= 9.175\nsquared_error = 24.417\nsamples = 83\nvalue = 476.614", fillcolor="#eba06a"] ;
727 -> 731 ;
732 [label="V <= 40.565\nsquared_error = 27.195\nsamples = 13\nvalue = 480.325", fillcolor="#ea9a61"] ;
731 -> 732 ;
733 [label="V <= 39.23\nsquared_error = 12.356\nsamples = 9\nvalue = 478.304", fillcolor="#eb9e66"] ;
732 -> 733 ;
734 [label="AP <= 1015.905\nsquared_error = 3.249\nsamples = 7\nvalue = 480.549", fillcolor="#ea9a60"] ;
733 -> 734 ;
735 [label="squared_error = 0.0\nsamples = 1\nvalue = 477.38", fillcolor="#eb9f68"] ;
734 -> 735 ;
736 [label="V <= 37.61\nsquared_error = 2.244\nsamples = 6\nvalue = 480.945", fillcolor="#ea995f"] ;
734 -> 736 ;
737 [label="AP <= 1027.775\nsquared_error = 0.665\nsamples = 4\nvalue = 479.916", fillcolor="#ea9b62"] ;
736 -> 737 ;
738 [label="AP <= 1026.775\nsquared_error = 0.444\nsamples = 3\nvalue = 479.638", fillcolor="#ea9b62"] ;
737 -> 738 ;
739 [label="squared_error = 0.0\nsamples = 1\nvalue = 480.74", fillcolor="#ea9a60"] ;
738 -> 739 ;
740 [label="AP <= 1027.26\nsquared_error = 0.051\nsamples = 2\nvalue = 479.27", fillcolor="#eb9c63"] ;
738 -> 740 ;
741 [label="squared_error = 0.0\nsamples = 1\nvalue = 478.95", fillcolor="#eb9d64"] ;
740 -> 741 ;
742 [label="squared_error = 0.0\nsamples = 1\nvalue = 479.43", fillcolor="#eb9c63"] ;
740 -> 742 ;
743 [label="squared_error = 0.0\nsamples = 1\nvalue = 481.03", fillcolor="#ea995f"] ;
737 -> 743 ;
744 [label="RH <= 69.105\nsquared_error = 0.168\nsamples = 2\nvalue = 482.66", fillcolor="#e9965a"] ;
736 -> 744 ;
745 [label="squared_error = 0.0\nsamples = 1\nvalue = 482.37", fillcolor="#e9975b"] ;
744 -> 745 ;
746 [label="squared_error = -0.0\nsamples = 1\nvalue = 483.24", fillcolor="#e99559"] ;
744 -> 746 ;
747 [label="RH <= 69.86\nsquared_error = 3.339\nsamples = 2\nvalue = 474.262", fillcolor="#eca471"] ;
733 -> 747 ;
748 [label="squared_error = 0.0\nsamples = 1\nvalue = 476.5", fillcolor="#eca16b"] ;
747 -> 748 ;
749 [label="squared_error = -0.0\nsamples = 1\nvalue = 472.77", fillcolor="#eda775"] ;
747 -> 749 ;
750 [label="RH <= 70.145\nsquared_error = 30.037\nsamples = 4\nvalue = 485.042", fillcolor="#e99254"] ;
732 -> 750 ;
751 [label="RH <= 66.255\nsquared_error = 0.536\nsamples = 2\nvalue = 488.597", fillcolor="#e78c4b"] ;
750 -> 751 ;
752 [label="squared_error = 0.0\nsamples = 1\nvalue = 487.33", fillcolor="#e88e4e"] ;
751 -> 752 ;
753 [label="squared_error = 0.0\nsamples = 1\nvalue = 489.02", fillcolor="#e78c4a"] ;
751 -> 753 ;
754 [label="RH <= 74.485\nsquared_error = 13.177\nsamples = 2\nvalue = 477.93", fillcolor="#eb9e67"] ;
750 -> 754 ;
755 [label="squared_error = 0.0\nsamples = 1\nvalue = 481.56", fillcolor="#ea985d"] ;
754 -> 755 ;
756 [label="squared_error = 0.0\nsamples = 1\nvalue = 474.3", fillcolor="#eca471"] ;
754 -> 756 ;
757 [label="AT <= 9.265\nsquared_error = 20.725\nsamples = 70\nvalue = 475.9", fillcolor="#eca26c"] ;
731 -> 757 ;
758 [label="RH <= 74.07\nsquared_error = 73.415\nsamples = 4\nvalue = 470.041", fillcolor="#eeab7c"] ;
757 -> 758 ;
759 [label="AP <= 1017.325\nsquared_error = 14.434\nsamples = 3\nvalue = 477.032", fillcolor="#eba069"] ;
758 -> 759 ;
760 [label="squared_error = 0.0\nsamples = 1\nvalue = 483.51", fillcolor="#e99558"] ;
759 -> 760 ;
761 [label="AP <= 1021.595\nsquared_error = 0.598\nsamples = 2\nvalue = 474.873", fillcolor="#eca36f"] ;
759 -> 761 ;
762 [label="squared_error = 0.0\nsamples = 1\nvalue = 475.42", fillcolor="#eca26e"] ;
761 -> 762 ;
763 [label="squared_error = 0.0\nsamples = 1\nvalue = 473.78", fillcolor="#eca572"] ;
761 -> 763 ;
764 [label="squared_error = 0.0\nsamples = 1\nvalue = 460.72", fillcolor="#f1bb94"] ;
758 -> 764 ;
765 [label="AT <= 9.4\nsquared_error = 14.266\nsamples = 66\nvalue = 476.323", fillcolor="#eca16b"] ;
757 -> 765 ;
766 [label="V <= 39.97\nsquared_error = 8.606\nsamples = 7\nvalue = 480.707", fillcolor="#ea9a60"] ;
765 -> 766 ;
767 [label="V <= 35.165\nsquared_error = 5.47\nsamples = 6\nvalue = 480.022", fillcolor="#ea9b61"] ;
766 -> 767 ;
768 [label="squared_error = 0.0\nsamples = 1\nvalue = 483.74", fillcolor="#e99458"] ;
767 -> 768 ;
769 [label="AP <= 1017.015\nsquared_error = 3.995\nsamples = 5\nvalue = 479.491", fillcolor="#ea9c63"] ;
767 -> 769 ;
770 [label="squared_error = 0.0\nsamples = 1\nvalue = 482.77", fillcolor="#e9965a"] ;
769 -> 770 ;
771 [label="AP <= 1022.31\nsquared_error = 2.57\nsamples = 4\nvalue = 478.945", fillcolor="#eb9d64"] ;
769 -> 771 ;
772 [label="AT <= 9.285\nsquared_error = 5.57\nsamples = 2\nvalue = 477.78", fillcolor="#eb9e67"] ;
771 -> 772 ;
773 [label="squared_error = 0.0\nsamples = 1\nvalue = 475.42", fillcolor="#eca26e"] ;
772 -> 773 ;
774 [label="squared_error = 0.0\nsamples = 1\nvalue = 480.14", fillcolor="#ea9b61"] ;
772 -> 774 ;
775 [label="AT <= 9.295\nsquared_error = 0.053\nsamples = 2\nvalue = 479.528", fillcolor="#ea9c63"] ;
771 -> 775 ;
776 [label="squared_error = -0.0\nsamples = 1\nvalue = 479.66", fillcolor="#ea9b62"] ;
775 -> 776 ;
777 [label="squared_error = -0.0\nsamples = 1\nvalue = 479.13", fillcolor="#eb9c64"] ;
775 -> 777 ;
778 [label="squared_error = 0.0\nsamples = 1\nvalue = 486.18", fillcolor="#e89051"] ;
766 -> 778 ;
779 [label="V <= 42.675\nsquared_error = 12.679\nsamples = 59\nvalue = 475.875", fillcolor="#eca26c"] ;
765 -> 779 ;
780 [label="V <= 35.225\nsquared_error = 10.135\nsamples = 54\nvalue = 475.474", fillcolor="#eca26d"] ;
779 -> 780 ;
781 [label="RH <= 72.865\nsquared_error = 0.264\nsamples = 2\nvalue = 478.043", fillcolor="#eb9e67"] ;
780 -> 781 ;
782 [label="squared_error = 0.0\nsamples = 1\nvalue = 477.68", fillcolor="#eb9f68"] ;
781 -> 782 ;
783 [label="squared_error = -0.0\nsamples = 1\nvalue = 478.77", fillcolor="#eb9d65"] ;
781 -> 783 ;
784 [label="V <= 40.645\nsquared_error = 10.352\nsamples = 52\nvalue = 475.272", fillcolor="#eca36e"] ;
780 -> 784 ;
785 [label="V <= 39.875\nsquared_error = 7.681\nsamples = 33\nvalue = 474.638", fillcolor="#eca470"] ;
784 -> 785 ;
786 [label="AP <= 1025.285\nsquared_error = 4.108\nsamples = 27\nvalue = 475.542", fillcolor="#eca26d"] ;
785 -> 786 ;
787 [label="V <= 38.28\nsquared_error = 3.775\nsamples = 25\nvalue = 475.381", fillcolor="#eca36e"] ;
786 -> 787 ;
788 [label="V <= 37.435\nsquared_error = 0.894\nsamples = 11\nvalue = 474.267", fillcolor="#eca471"] ;
787 -> 788 ;
789 [label="RH <= 64.505\nsquared_error = 0.384\nsamples = 5\nvalue = 473.673", fillcolor="#eda572"] ;
788 -> 789 ;
790 [label="squared_error = 0.0\nsamples = 1\nvalue = 474.31", fillcolor="#eca470"] ;
789 -> 790 ;
791 [label="RH <= 71.055\nsquared_error = 0.345\nsamples = 4\nvalue = 473.491", fillcolor="#eda673"] ;
789 -> 791 ;
792 [label="V <= 36.45\nsquared_error = 0.087\nsamples = 2\nvalue = 473.14", fillcolor="#eda674"] ;
791 -> 792 ;
793 [label="squared_error = 0.0\nsamples = 1\nvalue = 473.31", fillcolor="#eda673"] ;
792 -> 793 ;
794 [label="squared_error = 0.0\nsamples = 1\nvalue = 472.63", fillcolor="#eda775"] ;
792 -> 794 ;
795 [label="AT <= 9.51\nsquared_error = 0.304\nsamples = 2\nvalue = 473.96", fillcolor="#eca571"] ;
791 -> 795 ;
796 [label="squared_error = 0.0\nsamples = 1\nvalue = 473.57", fillcolor="#eda672"] ;
795 -> 796 ;
797 [label="squared_error = -0.0\nsamples = 1\nvalue = 474.74", fillcolor="#eca46f"] ;
795 -> 797 ;
798 [label="RH <= 70.195\nsquared_error = 0.701\nsamples = 6\nvalue = 474.86", fillcolor="#eca36f"] ;
788 -> 798 ;
799 [label="AP <= 1014.245\nsquared_error = 1.025\nsamples = 3\nvalue = 475.32", fillcolor="#eca36e"] ;
798 -> 799 ;
800 [label="RH <= 65.71\nsquared_error = 0.09\nsamples = 2\nvalue = 474.33", fillcolor="#eca470"] ;
799 -> 800 ;
801 [label="squared_error = 0.0\nsamples = 1\nvalue = 474.03", fillcolor="#eca571"] ;
800 -> 801 ;
802 [label="squared_error = 0.0\nsamples = 1\nvalue = 474.63", fillcolor="#eca470"] ;
800 -> 802 ;
803 [label="squared_error = 0.0\nsamples = 1\nvalue = 476.31", fillcolor="#eca16b"] ;
799 -> 803 ;
804 [label="AT <= 10.3\nsquared_error = 0.137\nsamples = 3\nvalue = 474.492", fillcolor="#eca470"] ;
798 -> 804 ;
805 [label="squared_error = 0.0\nsamples = 1\nvalue = 474.07", fillcolor="#eca571"] ;
804 -> 805 ;
806 [label="RH <= 72.655\nsquared_error = 0.03\nsamples = 2\nvalue = 474.773", fillcolor="#eca46f"] ;
804 -> 806 ;
807 [label="squared_error = 0.0\nsamples = 1\nvalue = 474.65", fillcolor="#eca470"] ;
806 -> 807 ;
808 [label="squared_error = -0.0\nsamples = 1\nvalue = 475.02", fillcolor="#eca36f"] ;
806 -> 808 ;
809 [label="RH <= 65.515\nsquared_error = 4.215\nsamples = 14\nvalue = 476.436", fillcolor="#eca16b"] ;
787 -> 809 ;
810 [label="V <= 39.1\nsquared_error = 2.153\nsamples = 3\nvalue = 479.107", fillcolor="#eb9c64"] ;
809 -> 810 ;
811 [label="AT <= 9.78\nsquared_error = 0.119\nsamples = 2\nvalue = 480.125", fillcolor="#ea9b61"] ;
810 -> 811 ;
812 [label="squared_error = 0.0\nsamples = 1\nvalue = 479.78", fillcolor="#ea9b62"] ;
811 -> 812 ;
813 [label="squared_error = 0.0\nsamples = 1\nvalue = 480.47", fillcolor="#ea9a60"] ;
811 -> 813 ;
814 [label="squared_error = 0.0\nsamples = 1\nvalue = 477.07", fillcolor="#eba069"] ;
810 -> 814 ;
815 [label="V <= 39.625\nsquared_error = 3.013\nsamples = 11\nvalue = 475.935", fillcolor="#eca26c"] ;
809 -> 815 ;
816 [label="RH <= 70.495\nsquared_error = 2.879\nsamples = 9\nvalue = 475.67", fillcolor="#eca26d"] ;
815 -> 816 ;
817 [label="V <= 38.995\nsquared_error = 2.732\nsamples = 3\nvalue = 474.742", fillcolor="#eca46f"] ;
816 -> 817 ;
818 [label="AT <= 10.73\nsquared_error = 0.819\nsamples = 2\nvalue = 475.462", fillcolor="#eca26d"] ;
817 -> 818 ;
819 [label="squared_error = -0.0\nsamples = 1\nvalue = 474.94", fillcolor="#eca36f"] ;
818 -> 819 ;
820 [label="squared_error = 0.0\nsamples = 1\nvalue = 477.03", fillcolor="#eba069"] ;
818 -> 820 ;
821 [label="squared_error = -0.0\nsamples = 1\nvalue = 471.86", fillcolor="#eda877"] ;
817 -> 821 ;
822 [label="AP <= 1018.01\nsquared_error = 2.217\nsamples = 6\nvalue = 476.186", fillcolor="#eca16c"] ;
816 -> 822 ;
823 [label="RH <= 73.455\nsquared_error = 0.152\nsamples = 2\nvalue = 474.795", fillcolor="#eca36f"] ;
822 -> 823 ;
824 [label="squared_error = 0.0\nsamples = 1\nvalue = 474.12", fillcolor="#eca571"] ;
823 -> 824 ;
825 [label="squared_error = 0.0\nsamples = 1\nvalue = 475.02", fillcolor="#eca36f"] ;
823 -> 825 ;
826 [label="AT <= 9.895\nsquared_error = 1.084\nsamples = 4\nvalue = 477.298", fillcolor="#eb9f69"] ;
822 -> 826 ;
827 [label="squared_error = 0.0\nsamples = 1\nvalue = 478.79", fillcolor="#eb9d65"] ;
826 -> 827 ;
828 [label="AT <= 10.31\nsquared_error = 0.659\nsamples = 3\nvalue = 476.925", fillcolor="#eba06a"] ;
826 -> 828 ;
829 [label="squared_error = 0.0\nsamples = 1\nvalue = 475.58", fillcolor="#eca26d"] ;
828 -> 829 ;
830 [label="RH <= 73.12\nsquared_error = 0.075\nsamples = 2\nvalue = 477.373", fillcolor="#eb9f68"] ;
828 -> 830 ;
831 [label="squared_error = 0.0\nsamples = 1\nvalue = 477.18", fillcolor="#eb9f69"] ;
830 -> 831 ;
832 [label="squared_error = 0.0\nsamples = 1\nvalue = 477.76", fillcolor="#eb9f67"] ;
830 -> 832 ;
833 [label="RH <= 71.685\nsquared_error = 0.02\nsamples = 2\nvalue = 477.79", fillcolor="#eb9e67"] ;
815 -> 833 ;
834 [label="squared_error = 0.0\nsamples = 1\nvalue = 477.93", fillcolor="#eb9e67"] ;
833 -> 834 ;
835 [label="squared_error = 0.0\nsamples = 1\nvalue = 477.65", fillcolor="#eb9f68"] ;
833 -> 835 ;
836 [label="AP <= 1026.455\nsquared_error = 0.837\nsamples = 2\nvalue = 478.535", fillcolor="#eb9d65"] ;
786 -> 836 ;
837 [label="squared_error = 0.0\nsamples = 1\nvalue = 479.45", fillcolor="#eb9c63"] ;
836 -> 837 ;
838 [label="squared_error = 0.0\nsamples = 1\nvalue = 477.62", fillcolor="#eb9f68"] ;
836 -> 838 ;
839 [label="V <= 40.54\nsquared_error = 1.682\nsamples = 6\nvalue = 470.23", fillcolor="#eeab7b"] ;
785 -> 839 ;
840 [label="AT <= 9.55\nsquared_error = 0.793\nsamples = 5\nvalue = 470.606", fillcolor="#eeab7a"] ;
839 -> 840 ;
841 [label="AP <= 1022.165\nsquared_error = 0.176\nsamples = 2\nvalue = 471.74", fillcolor="#eda977"] ;
840 -> 841 ;
842 [label="squared_error = 0.0\nsamples = 1\nvalue = 471.32", fillcolor="#eda978"] ;
841 -> 842 ;
843 [label="squared_error = -0.0\nsamples = 1\nvalue = 472.16", fillcolor="#eda876"] ;
841 -> 843 ;
844 [label="RH <= 67.795\nsquared_error = 0.32\nsamples = 3\nvalue = 470.152", fillcolor="#eeab7b"] ;
840 -> 844 ;
845 [label="squared_error = 0.0\nsamples = 1\nvalue = 469.06", fillcolor="#eead7e"] ;
844 -> 845 ;
846 [label="V <= 40.285\nsquared_error = 0.027\nsamples = 2\nvalue = 470.425", fillcolor="#eeab7b"] ;
844 -> 846 ;
847 [label="squared_error = 0.0\nsamples = 1\nvalue = 470.71", fillcolor="#eeaa7a"] ;
846 -> 847 ;
848 [label="squared_error = 0.0\nsamples = 1\nvalue = 470.33", fillcolor="#eeab7b"] ;
846 -> 848 ;
849 [label="squared_error = 0.0\nsamples = 1\nvalue = 467.6", fillcolor="#efb082"] ;
839 -> 849 ;
850 [label="AT <= 9.665\nsquared_error = 12.976\nsamples = 19\nvalue = 476.298", fillcolor="#eca16b"] ;
784 -> 850 ;
851 [label="AP <= 1021.05\nsquared_error = 0.001\nsamples = 2\nvalue = 481.713", fillcolor="#ea985d"] ;
850 -> 851 ;
852 [label="squared_error = 0.0\nsamples = 1\nvalue = 481.73", fillcolor="#ea985d"] ;
851 -> 852 ;
853 [label="squared_error = -0.0\nsamples = 1\nvalue = 481.68", fillcolor="#ea985d"] ;
851 -> 853 ;
854 [label="V <= 41.43\nsquared_error = 10.7\nsamples = 17\nvalue = 475.673", fillcolor="#eca26d"] ;
850 -> 854 ;
855 [label="AP <= 1018.475\nsquared_error = 5.916\nsamples = 5\nvalue = 479.897", fillcolor="#ea9b62"] ;
854 -> 855 ;
856 [label="squared_error = 0.0\nsamples = 1\nvalue = 485.25", fillcolor="#e89254"] ;
855 -> 856 ;
857 [label="RH <= 62.24\nsquared_error = 0.222\nsamples = 4\nvalue = 478.826", fillcolor="#eb9d65"] ;
855 -> 857 ;
858 [label="squared_error = 0.0\nsamples = 2\nvalue = 479.21", fillcolor="#eb9c64"] ;
857 -> 858 ;
859 [label="AT <= 10.275\nsquared_error = 0.002\nsamples = 2\nvalue = 478.25", fillcolor="#eb9e66"] ;
857 -> 859 ;
860 [label="squared_error = 0.0\nsamples = 1\nvalue = 478.21", fillcolor="#eb9e66"] ;
859 -> 860 ;
861 [label="squared_error = 0.0\nsamples = 1\nvalue = 478.29", fillcolor="#eb9e66"] ;
859 -> 861 ;
862 [label="V <= 41.51\nsquared_error = 5.179\nsamples = 12\nvalue = 474.407", fillcolor="#eca470"] ;
854 -> 862 ;
863 [label="AP <= 1018.12\nsquared_error = 2.738\nsamples = 2\nvalue = 470.97", fillcolor="#edaa79"] ;
862 -> 863 ;
864 [label="squared_error = 0.0\nsamples = 1\nvalue = 469.8", fillcolor="#eeac7c"] ;
863 -> 864 ;
865 [label="squared_error = -0.0\nsamples = 1\nvalue = 473.31", fillcolor="#eda673"] ;
863 -> 865 ;
866 [label="AP <= 1020.515\nsquared_error = 3.158\nsamples = 10\nvalue = 475.013", fillcolor="#eca36f"] ;
862 -> 866 ;
867 [label="V <= 41.545\nsquared_error = 1.423\nsamples = 8\nvalue = 475.799", fillcolor="#eca26d"] ;
866 -> 867 ;
868 [label="AT <= 10.68\nsquared_error = 0.144\nsamples = 2\nvalue = 477.43", fillcolor="#eb9f68"] ;
867 -> 868 ;
869 [label="squared_error = 0.0\nsamples = 1\nvalue = 477.05", fillcolor="#eba069"] ;
868 -> 869 ;
870 [label="squared_error = 0.0\nsamples = 1\nvalue = 477.81", fillcolor="#eb9e67"] ;
868 -> 870 ;
871 [label="AP <= 1013.485\nsquared_error = 1.084\nsamples = 6\nvalue = 475.503", fillcolor="#eca26d"] ;
867 -> 871 ;
872 [label="AP <= 1009.605\nsquared_error = 0.794\nsamples = 4\nvalue = 476.074", fillcolor="#eca16c"] ;
871 -> 872 ;
873 [label="RH <= 60.19\nsquared_error = 0.431\nsamples = 3\nvalue = 475.808", fillcolor="#eca26d"] ;
872 -> 873 ;
874 [label="squared_error = 0.0\nsamples = 1\nvalue = 477.27", fillcolor="#eb9f69"] ;
873 -> 874 ;
875 [label="AP <= 1004.7\nsquared_error = 0.005\nsamples = 2\nvalue = 475.516", fillcolor="#eca26d"] ;
873 -> 875 ;
876 [label="squared_error = 0.0\nsamples = 1\nvalue = 475.6", fillcolor="#eca26d"] ;
875 -> 876 ;
877 [label="squared_error = -0.0\nsamples = 1\nvalue = 475.46", fillcolor="#eca26d"] ;
875 -> 877 ;
878 [label="squared_error = -0.0\nsamples = 1\nvalue = 477.67", fillcolor="#eb9f68"] ;
872 -> 878 ;
879 [label="RH <= 70.78\nsquared_error = 0.018\nsamples = 2\nvalue = 474.502", fillcolor="#eca470"] ;
871 -> 879 ;
880 [label="squared_error = 0.0\nsamples = 1\nvalue = 474.27", fillcolor="#eca471"] ;
879 -> 880 ;
881 [label="squared_error = 0.0\nsamples = 1\nvalue = 474.58", fillcolor="#eca470"] ;
879 -> 881 ;
882 [label="AP <= 1021.22\nsquared_error = 0.257\nsamples = 2\nvalue = 472.458", fillcolor="#eda775"] ;
866 -> 882 ;
883 [label="squared_error = 0.0\nsamples = 1\nvalue = 471.58", fillcolor="#eda978"] ;
882 -> 883 ;
884 [label="squared_error = 0.0\nsamples = 1\nvalue = 472.75", fillcolor="#eda775"] ;
882 -> 884 ;
885 [label="RH <= 65.515\nsquared_error = 15.299\nsamples = 5\nvalue = 481.348", fillcolor="#ea985e"] ;
779 -> 885 ;
886 [label="AP <= 1021.255\nsquared_error = 2.706\nsamples = 2\nvalue = 486.275", fillcolor="#e89051"] ;
885 -> 886 ;
887 [label="squared_error = 0.0\nsamples = 1\nvalue = 487.92", fillcolor="#e88d4d"] ;
886 -> 887 ;
888 [label="squared_error = 0.0\nsamples = 1\nvalue = 484.63", fillcolor="#e99355"] ;
886 -> 888 ;
889 [label="RH <= 73.25\nsquared_error = 3.391\nsamples = 3\nvalue = 478.885", fillcolor="#eb9d64"] ;
885 -> 889 ;
890 [label="AP <= 1016.685\nsquared_error = 0.562\nsamples = 2\nvalue = 477.89", fillcolor="#eb9e67"] ;
889 -> 890 ;
891 [label="squared_error = 0.0\nsamples = 1\nvalue = 476.83", fillcolor="#eba06a"] ;
890 -> 891 ;
892 [label="squared_error = -0.0\nsamples = 1\nvalue = 478.42", fillcolor="#eb9d66"] ;
890 -> 892 ;
893 [label="squared_error = 0.0\nsamples = 1\nvalue = 481.87", fillcolor="#ea985d"] ;
889 -> 893 ;
894 [label="V <= 38.28\nsquared_error = 18.2\nsamples = 203\nvalue = 478.411", fillcolor="#eb9d66"] ;
726 -> 894 ;
895 [label="V <= 36.685\nsquared_error = 7.151\nsamples = 17\nvalue = 475.185", fillcolor="#eca36e"] ;
894 -> 895 ;
896 [label="V <= 36.275\nsquared_error = 0.666\nsamples = 5\nvalue = 479.034", fillcolor="#eb9c64"] ;
895 -> 896 ;
897 [label="RH <= 90.06\nsquared_error = 0.217\nsamples = 3\nvalue = 478.457", fillcolor="#eb9d66"] ;
896 -> 897 ;
898 [label="RH <= 87.475\nsquared_error = 0.084\nsamples = 2\nvalue = 478.74", fillcolor="#eb9d65"] ;
897 -> 898 ;
899 [label="squared_error = 0.0\nsamples = 1\nvalue = 478.45", fillcolor="#eb9d66"] ;
898 -> 899 ;
900 [label="squared_error = -0.0\nsamples = 1\nvalue = 479.03", fillcolor="#eb9c64"] ;
898 -> 900 ;
901 [label="squared_error = 0.0\nsamples = 1\nvalue = 477.89", fillcolor="#eb9e67"] ;
897 -> 901 ;
902 [label="AP <= 1027.245\nsquared_error = 0.09\nsamples = 2\nvalue = 479.9", fillcolor="#ea9b62"] ;
896 -> 902 ;
903 [label="squared_error = 0.0\nsamples = 1\nvalue = 480.2", fillcolor="#ea9a61"] ;
902 -> 903 ;
904 [label="squared_error = 0.0\nsamples = 1\nvalue = 479.6", fillcolor="#ea9b63"] ;
902 -> 904 ;
905 [label="RH <= 76.505\nsquared_error = 3.934\nsamples = 12\nvalue = 474.173", fillcolor="#eca571"] ;
895 -> 905 ;
906 [label="RH <= 76.12\nsquared_error = 3.939\nsamples = 3\nvalue = 475.953", fillcolor="#eca26c"] ;
905 -> 906 ;
907 [label="AT <= 9.79\nsquared_error = 1.259\nsamples = 2\nvalue = 474.953", fillcolor="#eca36f"] ;
906 -> 907 ;
908 [label="squared_error = 0.0\nsamples = 1\nvalue = 476.54", fillcolor="#eca16b"] ;
907 -> 908 ;
909 [label="squared_error = -0.0\nsamples = 1\nvalue = 474.16", fillcolor="#eca571"] ;
907 -> 909 ;
910 [label="squared_error = -0.0\nsamples = 1\nvalue = 478.95", fillcolor="#eb9d64"] ;
906 -> 910 ;
911 [label="AP <= 1013.355\nsquared_error = 2.863\nsamples = 9\nvalue = 473.698", fillcolor="#eca572"] ;
905 -> 911 ;
912 [label="RH <= 79.15\nsquared_error = 0.114\nsamples = 2\nvalue = 471.575", fillcolor="#eda978"] ;
911 -> 912 ;
913 [label="squared_error = 0.0\nsamples = 1\nvalue = 472.16", fillcolor="#eda876"] ;
912 -> 913 ;
914 [label="squared_error = 0.0\nsamples = 1\nvalue = 471.38", fillcolor="#eda978"] ;
912 -> 914 ;
915 [label="AT <= 10.27\nsquared_error = 1.628\nsamples = 7\nvalue = 474.47", fillcolor="#eca470"] ;
911 -> 915 ;
916 [label="AT <= 10.06\nsquared_error = 0.221\nsamples = 4\nvalue = 475.54", fillcolor="#eca26d"] ;
915 -> 916 ;
917 [label="RH <= 81.475\nsquared_error = 0.043\nsamples = 3\nvalue = 475.85", fillcolor="#eca26c"] ;
916 -> 917 ;
918 [label="squared_error = 0.0\nsamples = 1\nvalue = 475.51", fillcolor="#eca26d"] ;
917 -> 918 ;
919 [label="RH <= 83.405\nsquared_error = 0.006\nsamples = 2\nvalue = 475.963", fillcolor="#eca26c"] ;
917 -> 919 ;
920 [label="squared_error = 0.0\nsamples = 1\nvalue = 476.02", fillcolor="#eca16c"] ;
919 -> 920 ;
921 [label="squared_error = 0.0\nsamples = 1\nvalue = 475.85", fillcolor="#eca26c"] ;
919 -> 921 ;
922 [label="squared_error = -0.0\nsamples = 1\nvalue = 474.92", fillcolor="#eca36f"] ;
916 -> 922 ;
923 [label="AP <= 1022.05\nsquared_error = 0.293\nsamples = 3\nvalue = 473.186", fillcolor="#eda673"] ;
915 -> 923 ;
924 [label="squared_error = 0.0\nsamples = 1\nvalue = 474.2", fillcolor="#eca471"] ;
923 -> 924 ;
925 [label="AT <= 10.585\nsquared_error = 0.045\nsamples = 2\nvalue = 472.932", fillcolor="#eda774"] ;
923 -> 925 ;
926 [label="squared_error = 0.0\nsamples = 1\nvalue = 473.3", fillcolor="#eda673"] ;
925 -> 926 ;
927 [label="squared_error = 0.0\nsamples = 1\nvalue = 472.81", fillcolor="#eda774"] ;
925 -> 927 ;
928 [label="RH <= 83.8\nsquared_error = 18.184\nsamples = 186\nvalue = 478.674", fillcolor="#eb9d65"] ;
894 -> 928 ;
929 [label="AT <= 10.755\nsquared_error = 16.637\nsamples = 72\nvalue = 480.374", fillcolor="#ea9a60"] ;
928 -> 929 ;
930 [label="AP <= 1023.375\nsquared_error = 14.373\nsamples = 68\nvalue = 480.096", fillcolor="#ea9b61"] ;
929 -> 930 ;
931 [label="V <= 40.92\nsquared_error = 10.631\nsamples = 60\nvalue = 479.57", fillcolor="#ea9b63"] ;
930 -> 931 ;
